{
  "layers": [
    {
      "type": "Linear",
      "in_features": 4,
      "out_features": 128,
      "weights": [
        [
          [
            -0.2326952010027924,
            -0.8658340828928579,
            0.2529713454179209,
            -0.6290476981622769,
            -0.8934528631605234,
            -0.21759672525136947,
            0.6284572526420542,
            -0.17300523350877234,
            -0.23843473296766912,
            0.3058605429800529,
            0.42120091345496014,
            -0.5343340841015809,
            -0.3305153946910707,
            -0.8127945827374683,
            0.3197457040471929,
            -0.030046886336675994,
            0.433942423445859,
            0.424420211453853,
            0.9109698632697651,
            0.9350503987396844,
            -0.7891482556550512,
            -0.2657196467319098,
            -0.4659360312870764,
            -0.5261622844557747,
            0.3131281084014998,
            -0.8689481884684856,
            0.7964618892507546,
            -0.6930888121348929,
            -0.08834011724870137,
            -0.6108566189132586,
            -0.2579340885319239,
            0.42753097902389453,
            0.8119802106271354,
            0.9731680707738652,
            -0.8746545974858814,
            0.8975326993749863,
            0.8801141937628466,
            0.7316734595730569,
            -0.7197657803558678,
            0.2343183410575195,
            0.4360672739675832,
            0.49801589167323945,
            -0.5127328459713629,
            -0.9054077824528329,
            0.39793019102095994,
            0.10087138508093092,
            0.7007443594762606,
            0.10741838255732318,
            0.08548862817898109,
            0.579649182102334,
            -0.6766382779790928,
            -0.6497169155696714,
            0.8582600563252011,
            0.5932139752343013,
            0.12272276637605943,
            -0.5090984880789348,
            -0.10181423788893046,
            -0.4310575632437431,
            -0.9722482787455581,
            -0.4540265403923245,
            0.8047650085138952,
            0.3530899092200185,
            -0.6263048135526671,
            0.42790033673375394,
            -0.9140327999506411,
            -0.3870701372220024,
            -0.402862055738167,
            0.1899214469813426,
            0.7670529458037537,
            0.7625893157552633,
            -0.49468443568880793,
            0.3897033195326716,
            -0.043786986291091595,
            0.7659180049884861,
            0.26928887233862603,
            0.06824080793866355,
            -0.07567568093232978,
            -0.8300101867840353,
            -0.05109217553166353,
            0.7638926617632711,
            0.8215489967685833,
            0.8897497778057446,
            -0.41553845685323804,
            0.439268670418175,
            -0.11896108614555359,
            0.40248958888058173,
            0.6686889552209597,
            -0.6883959815221543,
            -0.563307623610316,
            0.6269885426100745,
            -0.44847637329568574,
            0.9354142869824461,
            0.6761366034439965,
            -0.5924134255053857,
            0.3513472681225297,
            0.03622096739726965,
            -0.30674921932617655,
            0.9276853860947636,
            -0.21484683579524577,
            0.18155740857861027,
            -0.9218809395975283,
            0.9275786222352383,
            -0.29983601576236,
            -0.7523798438738458,
            0.8416213871164377,
            0.8207234163389748,
            0.020543384977307667,
            -0.3669922471613173,
            0.47755149934969027,
            0.24912910425407722,
            -0.21091904226688613,
            0.28118188693762136,
            -0.666398884834596,
            -0.4638324998366394,
            0.6168813944112792,
            0.4559127307030264,
            -0.3701222230139903,
            -0.9738592257966029,
            -0.7487433721705081,
            0.7053704984130036,
            -0.5886304982706797,
            -0.8440227169003609,
            0.7405309392504735,
            0.3837141810978404,
            -0.5583478500011313,
            0.9361615965166508,
            -0.8394295318580917,
            -0.09881568973739131
          ],
          [
            -0.7351534580159984,
            0.891806977985362,
            0.0681772697106346,
            -0.07412651089159947,
            -0.7537909337205804,
            -0.4581012813185395,
            0.8535302176349866,
            -0.17334779221095026,
            -0.48040606425661364,
            -0.7066126716522947,
            0.47113120008885934,
            -0.6596239294845846,
            0.3213997917356708,
            0.3126731478988295,
            0.17256769657835314,
            -0.12768837263361768,
            -0.9089125140501789,
            0.8861029914951445,
            0.3856535931492325,
            0.7188250460641835,
            0.5471294865902986,
            -0.7263448543190743,
            0.8536918283925503,
            -0.11863066762354087,
            -0.6432883564051011,
            -0.0348213322474552,
            -0.3206460033774626,
            0.3237002233007348,
            -0.3458193181550245,
            -0.19619068280040006,
            0.7010241271487131,
            -0.925586679288298,
            -0.004577065664996351,
            -0.014083371273735913,
            0.7885976664189667,
            -0.21964440653964765,
            0.779451003513926,
            -0.014108173006399261,
            -0.07876171490836265,
            0.5581895462530065,
            0.2627018526705418,
            0.0180302345741093,
            -0.3318989709993859,
            0.6485369463721814,
            0.1458735567631552,
            0.6949632694372512,
            0.4316363614149774,
            0.5669241430829168,
            -0.203512070019218,
            -0.48531105915590755,
            0.017778373624502408,
            0.7767956435125348,
            0.4845054317491471,
            -0.7634967873227365,
            -0.3424083558597614,
            0.15294731952503923,
            -0.31328648147097926,
            0.7519987094444769,
            -0.7797651546148359,
            0.7952599327860053,
            -0.7749997753666101,
            -0.8401421123006698,
            -0.5973193074390288,
            -0.7528357620440332,
            -0.5955314879709945,
            -0.5273681508347694,
            -0.46961785807209766,
            0.01795384788225966,
            0.992277190463555,
            -0.3562884593441743,
            -0.2567689069604557,
            -0.4434327560380793,
            -0.9280519233675161,
            0.1858674422659514,
            -0.5361744146631563,
            0.5358671367772643,
            0.5062003574155627,
            0.8543472707420555,
            0.11627465611513851,
            -0.7685845565870733,
            0.37820590930762077,
            0.9493331222989657,
            0.3541343671961986,
            -0.056779053195727354,
            0.9264100141042384,
            0.15665971637182996,
            -0.3897896643245167,
            -0.6744166267983015,
            0.7297638453908302,
            0.3924491430448634,
            -0.5963582768899319,
            -0.6040360936969894,
            -0.44641327955018806,
            -0.1692474393061274,
            0.7662267382872059,
            0.9189291776075834,
            -0.3738445824771632,
            -0.401628032563792,
            0.6116798204026729,
            -0.5203215573357323,
            -0.8767533256500805,
            -0.4877616834779736,
            -0.15653719222667783,
            0.8190177404887329,
            0.6966090521644276,
            -0.27079914378975467,
            -0.8760956020817972,
            -0.8796039353740579,
            -0.8254704683596539,
            0.1670008180655407,
            -0.8300146161908374,
            -0.7545053950232834,
            0.05655714065778065,
            -0.317859119849365,
            -0.5852074081932025,
            0.6503800322346321,
            0.7719044601117192,
            0.9106800491142314,
            0.7447909391197988,
            0.9455076509831076,
            0.34579429493275315,
            0.9078190804820095,
            0.0013698885681974263,
            0.04090582517888565,
            0.9535799243699661,
            -0.3288821470321102,
            0.6841970341620289,
            -0.5806529000434033
          ],
          [
            -0.653188026564901,
            0.40379718908804596,
            -0.2475223413511305,
            0.30315401068178033,
            0.921340179826286,
            -0.27676413078461337,
            -0.9436358746162172,
            -0.625204624586303,
            0.4037663958322804,
            -0.6583642686108462,
            -0.9787887316759379,
            0.6888060685445734,
            -0.6380270990397074,
            0.7031980180774322,
            -0.6713400339084744,
            0.1533128007242774,
            -0.3277907472029665,
            0.6745564831558222,
            -0.5223547846014396,
            -0.3978271423359655,
            -0.10507400147296843,
            0.9479151031969474,
            -0.7671963048659428,
            -0.7172084929093646,
            -0.7576658702428203,
            -0.06727421851946143,
            0.43012473753074776,
            0.8786607147215421,
            -0.3974393410238595,
            0.1401605666186392,
            0.46395774265354944,
            -0.019500149721326892,
            -0.3933620376883897,
            -0.5010254974100131,
            -0.43708957928751757,
            -0.8541808919768467,
            -0.8840929322087044,
            0.652768477925052,
            -0.4074477732811734,
            -0.5175736236723694,
            0.14284506820755719,
            -0.6420946601000497,
            0.8209009346828182,
            0.6473052861072306,
            0.6102474425186706,
            -0.8818729455183872,
            -0.7657799860386303,
            0.4972557959330438,
            -0.16255934879171482,
            0.07622410155379471,
            -0.007498039281890304,
            0.2001380973376691,
            -0.688487948215452,
            -0.9127855135902894,
            -0.7706643680813694,
            0.3474285002102314,
            0.9468029342704626,
            0.5333765568202623,
            -0.4964561187636107,
            -0.191025186548656,
            0.4256672887313241,
            0.004471865221792559,
            -0.7506101487907265,
            0.3781759546404234,
            -0.6166280346780495,
            0.23216798286302853,
            0.2934043706113179,
            -0.19014081967089058,
            -0.051867079956074716,
            0.46653005530497177,
            0.8922863535254107,
            0.7665336117837952,
            -0.0683660329329741,
            -0.5242227582978163,
            -0.8963989492235431,
            0.7570474155905997,
            0.6270837156997793,
            0.7755738651829686,
            0.6417493196203634,
            -0.3155966730360638,
            0.04329035830259983,
            0.5477540314627223,
            0.5888076699959817,
            0.8899049896769442,
            -0.8757387413553404,
            -0.5968579486632045,
            -0.6606790481143646,
            0.44742899416081583,
            -0.6660670104685739,
            -0.06798830175383552,
            0.3096579245133081,
            -0.6938297913678214,
            0.44744293217701886,
            -0.646869959188891,
            -0.8575216311066363,
            -0.7749980980493109,
            -0.4324513758303772,
            -0.10026756816757044,
            -0.9177246999126017,
            0.9174907320556144,
            -0.7995035499373231,
            0.5729721842977604,
            0.41005901482011475,
            -0.21514353182103033,
            -0.7646175025319325,
            -0.6332486455174177,
            -0.7705677338015655,
            -0.38451118548932484,
            0.42899080561086916,
            0.06136780425544018,
            -0.7653236290420571,
            -0.32045349503327186,
            -0.3069438272348213,
            -0.11673522065912198,
            0.32228955954137084,
            -0.3242966371008534,
            0.9590085175458135,
            0.23068967674450394,
            0.6375404085852641,
            -0.6426194780690769,
            -0.9209008286047392,
            -0.4128980875974155,
            -0.7354322473668763,
            0.5187683153975918,
            -0.3217686685194935,
            0.6269629721628057,
            -0.8037396879944905,
            -0.616229944463012
          ],
          [
            0.8617617494577768,
            0.10553969173919528,
            0.6623445242676319,
            -0.7280396029607406,
            0.7534726144818974,
            0.41783550360246663,
            0.38883207001279474,
            -0.3802602780561424,
            0.6911487156554957,
            0.8665760514740282,
            -0.7382481515328337,
            0.23790815645421215,
            -0.07544547811217767,
            -0.3735777155549971,
            -0.3742164913366471,
            -0.6275232338238598,
            -0.1789964410074437,
            0.45349615643881536,
            -0.28844528426082183,
            -0.5402065873115943,
            -0.8361948358251926,
            -0.9976976038457943,
            -0.3518803355340395,
            -0.8132474532900046,
            -0.28735853603709843,
            0.9842966931232476,
            -0.3764549429357246,
            -0.6919797945564656,
            -0.3723270776989938,
            0.19310004406919745,
            0.1521855194225576,
            0.978759801602421,
            -0.7634134098938645,
            0.8973584479656769,
            0.8352019675484641,
            -0.27593516609283586,
            0.171194155862275,
            0.8205400272134186,
            -0.6274216364744436,
            0.35224518418458595,
            0.256740371783119,
            0.7548990601172034,
            -0.4291951594428967,
            0.31464398289170015,
            -0.5438530975115557,
            -0.5361146584464044,
            0.6658200035096388,
            0.5556262404080099,
            -0.6032870883001381,
            0.32246376244689096,
            0.5706305860526201,
            0.8062428710193642,
            -0.02718144040705947,
            -0.5846604024258651,
            -0.09053134849423049,
            0.6610755345916741,
            0.8716187919264647,
            -0.2885362388684175,
            -0.6798067219051064,
            0.8147625017484679,
            0.9564441626044049,
            -0.592239485277045,
            0.5294334350208659,
            0.8815756336537953,
            0.9530463857149921,
            -0.3327107593514286,
            0.035458743896704725,
            -0.49291459377315155,
            0.9141677700516735,
            -0.1535658659519218,
            0.3520287500753098,
            0.08927378587911046,
            -0.5482744731136393,
            0.13364020193521672,
            0.8423335876124122,
            0.36418266523278847,
            -0.9385900955191058,
            0.11824548729263554,
            0.24180377708529904,
            -0.4799644107216408,
            -0.8468822549131929,
            0.15643911234678648,
            0.3848503427861102,
            -0.9103688320652707,
            0.9251661373976231,
            -0.9091205225809547,
            0.4286339234051041,
            -0.35215967648159613,
            -0.3822340145611408,
            0.8810609426073971,
            0.5986661095068739,
            0.03233088443428656,
            0.3001761225742598,
            -0.1159425518723863,
            0.18249418740724357,
            -0.20609025574210338,
            0.01817616264710153,
            -0.024417596464800354,
            -0.8783573172826623,
            0.0670084804261779,
            0.3689262788667493,
            0.5202556311663193,
            0.47397403888211315,
            -0.8157710281381018,
            -0.3788235889200258,
            0.18430552016390628,
            -0.2833160321441354,
            -0.4647427103598063,
            -0.19294735784641648,
            -0.19744284854738317,
            -0.6705049610215217,
            0.448522925389223,
            -0.9380325182943356,
            0.5879390302212382,
            -0.16494725198228632,
            -0.03468793696049173,
            -0.07396852967165389,
            0.7611142286390123,
            -0.636191240810665,
            0.1110585139706425,
            0.22262349094652176,
            -0.8879523617452105,
            -0.8043384673789363,
            -0.01281810103376653,
            -0.3206833331556525,
            0.6380952634082243,
            0.5430566283957171,
            0.14018693678943311
          ]
        ]
      ],
      "biases": [
        [
          [
            -0.0432604153735322,
            0.003476832362441526,
            0.05267829722813659,
            0.04386518370184132,
            0.012214133878634226,
            -0.01206195102047292,
            -0.01843793422545438,
            -0.05983193353533956,
            -0.03656526720497526,
            0.021159672404613573,
            0.0005028050602275268,
            -0.02813581674804672,
            0.037253569916249556,
            0.053143504708571196,
            -0.025114068271152954,
            -0.03401650034040195,
            -0.0339301289709677,
            -0.04872989589274037,
            0.05008405327314915,
            -0.0005991149990638981,
            0.031564927715129885,
            -0.04949965151388755,
            0.02705939154605923,
            -0.03161946948411436,
            -0.03956730512049441,
            -0.04155660652568828,
            -0.04770189217002502,
            -0.04907212626096614,
            0.021889011576518493,
            0.023576832785223108,
            0.04136079397936137,
            0.0573391401718913,
            0.02302840498854764,
            -0.0318516426328977,
            -0.0006047305144057368,
            -0.0560234306232204,
            0.035457109427537645,
            0.018571360145741414,
            0.03331578669959667,
            -0.014147057259685295,
            -0.05094033017386818,
            -0.009450642153342617,
            -0.0367133415692361,
            -0.01093334472811273,
            -0.006277208996056445,
            0.0310662474283933,
            0.022000704995296397,
            0.017704973129004757,
            0.04037620395376489,
            0.0051153503828839245,
            0.0550064065486771,
            0.04135645857623104,
            -0.004057542061711685,
            0.01771611583420867,
            -0.0379490792452712,
            0.04024804623221025,
            -0.0026035829134174278,
            -0.0059904596684350895,
            0.04295371071433058,
            -0.01963590927740422,
            0.0015276027179941397,
            -0.05550808773218418,
            -0.03385997589325384,
            -0.0032997634777838635,
            0.018089077902943264,
            -0.02771445806856337,
            0.05906266271365764,
            -0.03959526705077801,
            -0.061830609940223505,
            -0.03315501785178415,
            0.06304938400583464,
            0.04640911172254073,
            -0.016202144989319912,
            -0.044463877188717006,
            -0.052114590152128416,
            0.008378134474026539,
            0.01491121564146793,
            0.010269317881812587,
            0.02834933580852947,
            -0.030113374627561064,
            -0.0010763194100032868,
            -0.04673016055974568,
            0.011303717241199544,
            -0.027782666186324866,
            0.011090863521509875,
            -0.0246341311647451,
            0.015490944829143552,
            -0.019292817245802306,
            -0.0009007134646766798,
            0.050547505153791576,
            -0.04729998938371462,
            -0.058673548765038754,
            -0.021922801344448253,
            0.014264431691960748,
            0.006080436163039644,
            0.014918487954200527,
            -0.02358982891618306,
            0.03749853834883491,
            0.02898618352109317,
            0.05954261383370172,
            -0.04582279840360227,
            -0.04984864110455554,
            -0.03556994977392209,
            -0.002060086180754691,
            0.025132920232494155,
            -0.010178581824490725,
            0.043922284069019456,
            -0.012250050507768392,
            0.057650668813282714,
            -0.03247244839093643,
            -0.04990062846661314,
            -0.024416817515516175,
            -0.03086529219405431,
            -0.036417119856514794,
            0.015511789044456483,
            -0.019261043064096844,
            -0.010378084514939488,
            -0.048927239366684756,
            -0.02502261543193536,
            0.045269869358620644,
            -0.04803454323728346,
            0.008417750829207553,
            -0.06156248124314539,
            0.013480256656001059,
            0.018584522633862767,
            -0.05499476099397918,
            -0.0323791200595562,
            -0.04819921591660552
          ]
        ]
      ]
    },
    {
      "type": "ReLU"
    },
    {
      "type": "Linear",
      "in_features": 128,
      "out_features": 64,
      "weights": [
        [
          [
            0.9073941809775573,
            0.1630275458412302,
            -0.817632815352157,
            -0.957327868157919,
            0.3952642155843369,
            0.15848131364833745,
            0.9187840352152582,
            0.4393498621776822,
            0.6664056194774298,
            -0.8005530332577875,
            -0.3266294199079978,
            -0.5408869748557726,
            -0.18163836509598763,
            -0.08857248168184081,
            0.648697287578891,
            -0.6708603846471257,
            0.16253752313094535,
            0.22646810607469622,
            0.2734684658752979,
            0.010629654555237051,
            0.9066877627571506,
            0.8266275311464387,
            -0.2172784056728755,
            0.6835949877047184,
            -0.47180591413376366,
            -0.2273720578023784,
            0.847268933074926,
            0.44747357016079503,
            -0.9855322875627813,
            -0.6553383335960107,
            -0.68480906988225,
            0.8768200042566209,
            -0.8456673994357917,
            -0.14769150952464227,
            0.46278582906689775,
            0.042291127241780024,
            -0.6922395331990963,
            -0.8833561484594094,
            0.3747379585859228,
            0.006532732181840968,
            0.6176321770751203,
            0.7031748140123443,
            -0.21771881701558393,
            0.5725656261317257,
            -0.5820794745433903,
            0.08773303773275666,
            0.46934741839742333,
            -0.5833873442422597,
            0.6850391204854549,
            0.9310978674462494,
            -0.4640908324049946,
            -0.7861370649989151,
            0.591523682763274,
            -0.5488653331453971,
            0.02332426948336488,
            0.8363323472004808,
            -0.5993443660010908,
            0.5671580344018596,
            0.38177829337209385,
            -0.09733006929975414,
            0.9310919735660811,
            -0.8762611901394458,
            -0.5733990635896408,
            0.932061570941661
          ],
          [
            -0.13559673371488803,
            0.4357403652127797,
            -0.11046232741827477,
            0.8817898195737309,
            0.6231201513647454,
            -0.6233383763942709,
            0.12914717184356383,
            0.8866135935096938,
            -0.3411616189344138,
            0.3221048672889684,
            -0.01978903392246841,
            0.487365256374575,
            -0.3219369655279882,
            0.30856412297886526,
            -0.03266768157564141,
            -0.08523105345635539,
            -0.7593962591841656,
            0.23710211085266028,
            1.0186904906708198,
            -0.3894469364531186,
            0.06396970878146334,
            0.04204314480216598,
            -0.678626099439276,
            0.9101696319688631,
            -0.5553198874903412,
            0.9025811220351463,
            0.03459601925509927,
            0.6787130326149431,
            -0.7464730574964107,
            -0.4829826510750021,
            -0.33234388981486546,
            -0.6057054562272838,
            -0.19639285072782342,
            -0.7443748005919846,
            1.0281820069648313,
            0.6343770389498732,
            -0.3218334167848878,
            0.7757852925620707,
            0.16501727040843184,
            0.09773766522681283,
            -0.2516222536467001,
            0.8220839845692155,
            0.33148441501395737,
            -0.9544718256780689,
            -0.37954881508760835,
            -0.21182216112320848,
            0.28637301350365263,
            0.5928409909202065,
            0.6430606420170487,
            -0.5528569997784575,
            -0.22261810628478396,
            -0.6405894250350136,
            -0.4175737355233447,
            -0.2365803137510124,
            -0.9271097177834356,
            -0.3062815123698877,
            -0.10695273257468918,
            -0.9024146849805391,
            -0.3713775666390727,
            0.11799860846720245,
            0.04929762725520566,
            -0.8636326278560087,
            -0.440187175110247,
            -0.9701466743438674
          ],
          [
            -0.32567435387971305,
            -0.14737364977697576,
            -0.15741933182556686,
            0.21188628557702563,
            -0.5785516513153675,
            -0.7002128628140192,
            -0.5001989358009465,
            0.1724682833366391,
            0.8929819996527761,
            -0.4191702767685688,
            -0.28679537802164257,
            0.7827817059576799,
            -0.3811675907086469,
            -0.6745147420522124,
            -0.2619924668834937,
            0.30573191031437036,
            0.9539959018040206,
            -0.7443105789826552,
            0.49027130702417165,
            0.526360078072658,
            0.8360299815307748,
            -0.2289807077970999,
            0.8648645095865197,
            -0.7419487266169927,
            0.16111564212127016,
            0.7538246377716734,
            -0.6215547055629772,
            -0.8877711436904951,
            -0.35592053800629403,
            0.2978978656789594,
            -0.931834541967799,
            -0.29872446591424695,
            -0.054847124710126705,
            0.4117621447568,
            -0.3952006391713765,
            -0.5044556537801965,
            -0.8266225684737281,
            -0.313004509630729,
            0.42451039354057696,
            0.5732849661419217,
            0.9754215636745927,
            -0.9711425075245921,
            0.03815878704510978,
            0.5628839204521557,
            -0.44061604595656395,
            0.636328261950535,
            -0.0967912377910752,
            -0.007310878310288997,
            0.8810753111677755,
            -0.2595960855104953,
            0.3344956580932133,
            -0.2981995453822633,
            -0.8222944640902102,
            -0.18007958437555316,
            -0.8998192338864953,
            -0.2444700582347243,
            -0.035732571006946906,
            0.8419549970658359,
            0.7385575015388595,
            -0.7102134265950184,
            0.7044338891743531,
            0.8087609225959844,
            0.5945610577066733,
            -0.7395436148972842
          ],
          [
            0.4902738348508053,
            0.24263761528980615,
            -0.5138360664978205,
            0.5268396715637936,
            0.779902443346613,
            0.7364328114695627,
            -0.34408234847803293,
            -0.26271233774259595,
            0.41383849226542235,
            -0.027584062042349793,
            0.35693078996874883,
            0.8391207025136932,
            0.00849926457350078,
            -0.319879025584518,
            0.7832580188563878,
            0.8371758172075003,
            -0.6439384924001781,
            0.534411768458852,
            -0.898869720988481,
            0.6321764460212801,
            -0.5639677929730209,
            -0.8937722998546499,
            -0.5032471988080037,
            0.6634028022473943,
            0.2162738714500412,
            -0.8146774925457231,
            -0.49725305462244973,
            -0.7006433830566725,
            0.39206499587643073,
            -0.7831736031202235,
            1.0039127180545715,
            0.42288877838218486,
            -0.6403227536680153,
            0.28306264426695144,
            -0.8178674155556238,
            0.6257713112849714,
            -0.4030270676109081,
            0.8034755402984691,
            -0.17640601286795723,
            0.8520074520119589,
            -0.04054941293876803,
            -0.9000645368299469,
            -0.8299092990793036,
            -0.12142191900149145,
            -0.6055957474734317,
            -0.5671693992715867,
            0.6590197245601226,
            0.30069594869153704,
            -0.38117801570630194,
            -0.6091963062789727,
            -0.4100108865990093,
            0.7468990792900183,
            0.285217028064015,
            0.2186816530216215,
            -0.5896919277352182,
            0.7386534069108092,
            0.13145529618671453,
            0.27566569654361506,
            -0.519748796870479,
            0.37344274793164106,
            0.34152658260982993,
            -0.411738910182535,
            -0.0011399259553646827,
            0.30348301613244216
          ],
          [
            -0.5480208478470174,
            0.8147801423320377,
            -0.6652006126065846,
            -0.30635747071866176,
            -0.9782957240938981,
            0.9252287431026887,
            0.36007726866387024,
            0.6209507479192293,
            -0.8874688547669237,
            0.8884490215952127,
            0.7892518446562617,
            0.4413784450224534,
            -0.3908581997011262,
            -0.8983112208809109,
            0.29376393168174886,
            -0.5967716094646716,
            0.6266696625795956,
            -0.11156030692856471,
            -0.09635408146411711,
            0.6245906294924672,
            -0.7079551954258128,
            -1.024149538334072,
            -0.701509104675655,
            -0.3840530237783377,
            0.17000858144423836,
            0.9191289779440004,
            0.9728788424533125,
            -0.11259701757525105,
            -0.46662117652433754,
            0.2712968555684485,
            0.18319561332360568,
            -1.0074288263014515,
            -0.20154644363912025,
            0.806401013520459,
            -0.7427727294721993,
            0.19563166624016304,
            0.6118451291720517,
            -0.280290508392411,
            -0.5526694439665603,
            -0.20452152339259655,
            -0.13044266781333658,
            -0.06222216239125947,
            -0.6456546839216227,
            0.2968989589800607,
            0.34793466757583663,
            0.19125938776435858,
            -0.5476716131248828,
            0.7756934097809077,
            0.8281134110396343,
            0.44960978879035995,
            0.7162581744922595,
            0.3741772555870994,
            -0.7774261177965677,
            -0.07140992944340085,
            -0.6102829464507337,
            0.061912748725148264,
            -0.5611919324451264,
            1.0062362014970356,
            -0.8780772738186572,
            0.33631817195968394,
            -0.5739000007540944,
            -0.8077305958089906,
            0.10525066268693299,
            -0.9285800609712003
          ],
          [
            0.05081421042048798,
            0.3347042189137437,
            -0.5452509188060328,
            -0.3373362044441153,
            -0.311525307123723,
            -0.5513601659051338,
            -0.7342667249232651,
            -0.2664457935912401,
            -0.4699507215241325,
            -0.37553977294854696,
            0.6741492089714308,
            0.6741915885349158,
            -1.0098302790963563,
            -0.9333057173688513,
            -0.5751585442175422,
            0.43415584835654,
            -0.42751359610157535,
            0.24777864964282909,
            0.08157243615647251,
            -0.39328327098402466,
            0.7917059588496503,
            0.30527811034518143,
            -0.6981558295166184,
            -0.5762026070076779,
            0.8176155495895534,
            0.5469524527165458,
            -0.653015004803274,
            -0.07563834886839188,
            -0.9236896818798151,
            -0.5828027239439059,
            0.6878596715370775,
            0.30130066125120064,
            -0.659614825246658,
            0.0045255771206832805,
            -0.4447535069574816,
            0.865046258178354,
            0.24793972480134008,
            0.15157057118678485,
            0.3884913017341193,
            0.740155193916723,
            -0.7881219186518257,
            -0.4838935003469901,
            0.6486154497261838,
            0.4043878620862402,
            0.31919090921681753,
            -0.407061987210403,
            0.6071518574470591,
            0.43279488021542767,
            -0.9625715417537366,
            0.23996585154187267,
            -0.1801206171580655,
            -0.11118444831897101,
            0.629143941100973,
            -0.07331603028882358,
            -0.9214320900754288,
            0.4038267725276081,
            -0.9868033842800356,
            -0.7503063762340861,
            0.7172145078060265,
            0.8923164269712812,
            0.16084168347020608,
            -0.9387911305402034,
            0.7753811965062098,
            0.8070260335293421
          ],
          [
            -0.9018387332659635,
            -0.7300970715656362,
            -0.3778646212761513,
            -0.08400882570876164,
            0.9738287383770253,
            0.12470801011277381,
            0.2880050601789901,
            0.25082949468895327,
            0.11330786321260701,
            -0.2977437187697809,
            0.7515843772691938,
            -0.6455098330836098,
            0.21559277596772022,
            0.29254088776945847,
            0.6090575064912181,
            0.3445858546907687,
            0.10393937018394786,
            0.608847447058909,
            -0.980729636831191,
            0.18425066600181625,
            0.2943247223353121,
            -0.3867338473102603,
            0.5778538301758934,
            -0.5454430380674034,
            -0.3054729912884068,
            -0.6717192981863968,
            0.33176160645241076,
            -0.8815039728038744,
            -0.21502153223975976,
            -0.06601290193347704,
            0.7458609249225701,
            0.09763571524458228,
            -0.4718625712841394,
            0.2222166189095712,
            0.06712147545119669,
            -0.56778237351196,
            -0.0443816846810566,
            0.6851126053992919,
            -0.4550713140815914,
            -0.1958717864823433,
            -0.2626072891508514,
            0.3537088167038839,
            0.5468347500363457,
            0.9321497593658515,
            0.9309525636062486,
            -0.6975561744488799,
            0.9546961987646665,
            0.11733268620775592,
            -0.6886941951567284,
            -0.4751040268916734,
            0.3439149652393421,
            -0.243592765722822,
            -0.07579829590824697,
            -0.4799837466747472,
            -0.8530239949332703,
            0.7665429436613829,
            -0.4947535191817041,
            0.33240527796760533,
            -0.6314900747610904,
            -0.45525329926188696,
            0.9153662431833319,
            -0.3131324705820623,
            0.8576809027340603,
            0.4353113462597106
          ],
          [
            0.8690327192739454,
            -0.9414274128503999,
            -0.36676971277026277,
            0.5706586294233397,
            -0.6419531012856564,
            0.6387192579376871,
            0.5909175295347497,
            -0.6213326630345825,
            0.10234334767345654,
            0.19898652496117789,
            -0.5422486711018608,
            0.22342160292321808,
            0.3348964083759039,
            1.0196273034792984,
            -0.47121138575677995,
            -0.7385069288694215,
            0.14131668287250446,
            -0.2619910250728939,
            0.884363193606232,
            -0.5595520864510689,
            -0.1896077973515965,
            0.4187437001783426,
            -0.990195730447079,
            -0.3035841571432966,
            0.29239165597963496,
            0.7424720932497846,
            -0.5859702353250259,
            -0.9763558298633721,
            0.47516306418424303,
            0.2950739441983985,
            0.12291717188152483,
            0.5902652719419323,
            -0.039852818230759146,
            -0.9398637704734417,
            0.8657993472487469,
            0.8598877653731967,
            0.04084619819293464,
            0.8192872533312877,
            -0.2818434426308651,
            -0.8000639127840317,
            0.5274419740638223,
            0.5643075760765952,
            0.5066134125243127,
            0.3947602586705767,
            -0.14813060523382238,
            0.9621565361541478,
            -0.5364076875749884,
            -0.1255536954601787,
            -0.11005577044462907,
            0.02614875408619164,
            0.6911492247161569,
            -0.6799769693173024,
            0.7172413997080076,
            0.30811510965241107,
            -0.978010044415826,
            0.5592966782885647,
            0.8432235204443405,
            0.6601634285388309,
            -0.5789392984660378,
            -0.17483163575574057,
            -0.9100370029459053,
            0.5778631138402305,
            -0.5424987253108626,
            0.8619683983074192
          ],
          [
            0.18198434010571163,
            -0.4959090624449534,
            0.19823379847277248,
            0.8140046441463161,
            0.5440815576001854,
            0.6346078056704685,
            -0.3963484780832197,
            0.6949598210149741,
            0.5060958256060095,
            0.7719923938235658,
            -0.38093483747047935,
            -0.0036106565360044876,
            0.8107745987133572,
            -0.01310411687855122,
            -0.8848965383670307,
            0.3240699880171037,
            -0.35776159678654995,
            0.9309319729465567,
            0.6424610864475063,
            0.2887778621638778,
            0.11799753299101903,
            -0.15660554920163536,
            0.5278823722268853,
            0.21034456623415548,
            -0.6941439603388337,
            -0.5960679886573552,
            0.6323481208713494,
            0.7001272503741202,
            0.8544822179269813,
            -0.7771028175844219,
            -0.9623660441731258,
            0.15334928190232275,
            0.07831016912886131,
            -0.3080880839664847,
            0.3892048908494379,
            -0.22349906197932687,
            -0.5384333668823623,
            0.6354795214982548,
            0.05612890241314499,
            -0.29512102372680676,
            0.7646492170766573,
            0.032299690811611305,
            0.3559172312130334,
            0.9647066805394363,
            -0.955914449886423,
            0.8099337334449042,
            0.6940954342604919,
            0.38806550663177525,
            0.20017858575368794,
            -0.8667362461058602,
            0.8706018290884472,
            -0.8136928965710621,
            0.2938488803755894,
            0.01197863728411543,
            0.3499243790495584,
            0.053601105631685096,
            -0.3079677914211306,
            -0.46769018697358056,
            -0.9496228549435289,
            0.6821233379358973,
            -0.8241008172570354,
            -0.4635773248246773,
            0.9978012280509386,
            0.4798196756578567
          ],
          [
            -0.280617933693244,
            -0.9617896348982642,
            -0.47964226173913416,
            0.141231437604474,
            -0.08140622781807018,
            0.7320575278855752,
            0.1492700836815081,
            0.05132240092620539,
            -0.750601106728461,
            0.17925762532980802,
            -0.47771793790490347,
            -0.01561149069177165,
            -0.8778670193938221,
            -0.1941908439729253,
            0.6492567489962704,
            0.11679196093434419,
            0.6511237669492468,
            0.83491840958088,
            -0.6896522144781777,
            0.387424498745687,
            -0.5243989370922465,
            0.027999148403505907,
            0.5170573276276669,
            0.45005993006752504,
            -0.1905408011857374,
            -0.21623810853329814,
            0.5554788339682969,
            -0.6801496784342089,
            0.322150338397186,
            0.6459970502320701,
            0.2984661315143163,
            -0.8009037530843925,
            -0.42210570192349695,
            -0.20133871955402813,
            0.33828071234854584,
            -0.5664808144754275,
            0.7216229854554431,
            0.7633798115831372,
            -0.2680716661906104,
            -0.9938328879533235,
            -0.4072143775981732,
            -0.4904400829538909,
            -0.9844391797781016,
            0.1762011244209697,
            0.846298808788562,
            0.7429615825411293,
            -0.3357781681715361,
            -0.056661228199657965,
            -0.39912056751309277,
            0.5881212358652025,
            -1.003933849674365,
            -0.6064463756713643,
            0.7591574953987478,
            -0.9272818056790996,
            -0.1608204488000625,
            0.9346609492248228,
            -0.4006504388594857,
            -0.9071351801303436,
            -1.0080057519988168,
            0.6606527351532951,
            0.7301702284491495,
            0.6685780918995853,
            -0.38022818447783824,
            0.7475607527081606
          ],
          [
            -0.8110280483059861,
            0.5617843173385383,
            -0.6660258304244057,
            0.18434610216293384,
            -0.049211702730254846,
            0.007621501611788524,
            1.0151538822964254,
            0.7205936664427679,
            0.13008953656895483,
            -0.2045222012956195,
            0.8454850054399773,
            -0.8211393666287506,
            0.03917499042597241,
            -0.2611909649144225,
            -0.596840334083046,
            0.47268297621316835,
            0.7932428579165918,
            -0.37345932177762303,
            -0.5743514682339697,
            -0.7370063670033511,
            0.35378197345586254,
            0.0546455706599238,
            -0.02841626944069771,
            0.7291475828944185,
            -0.18218760187291966,
            -0.5095461444432845,
            0.6135396292229568,
            0.7393091797248125,
            -0.6061097474245798,
            0.6714126587792523,
            0.2862734924076898,
            -0.5790957628225947,
            -0.26548464435821284,
            -1.0236525966967964,
            0.5620458157325581,
            0.6698613601210665,
            0.5230171639123516,
            -0.6005906335628172,
            -0.48629914624997594,
            -0.7449386434869582,
            0.7331665655545453,
            0.7238434882296819,
            0.7967171414829859,
            -0.9733685322298729,
            0.42740157646993004,
            0.742931067868832,
            0.8645673076205684,
            0.9583518255677447,
            -0.5890497997936163,
            -0.43949854040534486,
            0.8629539652022933,
            -0.8756873226456282,
            0.49861479664101777,
            0.33345028048648584,
            0.6134504021140601,
            0.044244881292503375,
            -0.27839476731676654,
            0.8199949065221224,
            -0.004149064361416104,
            0.8817051162403867,
            -0.49499795810231795,
            -0.36493682080250905,
            -0.3120126520138143,
            -0.251509852590926
          ],
          [
            0.396559960181735,
            -0.6674280874040627,
            -0.8351913188253248,
            -0.9441109499530619,
            -0.45670741744748655,
            -0.9078866625186129,
            0.5763853254080719,
            -0.07307711285571522,
            0.5207256719784396,
            0.8958160573938085,
            0.38932705955564473,
            0.025235849457473147,
            0.28116149939037316,
            0.17439710679576756,
            -0.6876397791969807,
            0.4789712546072238,
            0.8534272463617316,
            -0.40771330862894856,
            -0.6254099310433491,
            0.1764856395559415,
            -0.5986313085430854,
            -0.6190727284893275,
            -0.7141743862879459,
            -0.5334941603806643,
            -0.5811549118891228,
            0.7426785711425008,
            -0.7343214242547957,
            0.5371054602144343,
            0.3248936729710461,
            0.9489873860845237,
            -0.9597403899013239,
            0.13301431574033132,
            0.12361396192584545,
            -0.9711735891965961,
            -0.9827598080648218,
            -0.7083218713948827,
            -0.27941971918727393,
            0.38633303015417675,
            -0.4196373386892895,
            0.8627207967281479,
            0.2628999914475565,
            -1.010841229413832,
            0.5363111825597471,
            0.0343950672655376,
            -0.6471675216921968,
            -0.769422110548013,
            -0.4617278508575297,
            0.1517907656134269,
            0.8661300884767691,
            -0.5902892348531474,
            0.5324565710193845,
            0.6609720241643158,
            -0.3336312041369882,
            -0.10627332204640233,
            -0.8947312335652183,
            0.8862419690075606,
            -0.9931946243403582,
            0.9225805948793006,
            0.6837781317126175,
            -0.861094222270087,
            -0.29135567082666364,
            -0.04168406877046276,
            -0.20144195833717835,
            0.40103645931889126
          ],
          [
            -0.7105975950528312,
            0.5588246692638109,
            0.5565667467814664,
            0.9404357011475855,
            -0.058654686229725056,
            0.14656038036011673,
            -0.08773017937644698,
            0.978775442675008,
            0.5861672951805273,
            -0.07623460027032483,
            0.2080586135192565,
            0.010433217106290728,
            -0.6113390314351439,
            0.07492924785002983,
            -0.4646650677726372,
            -0.654719823845691,
            -0.3549241893665514,
            -0.548871733099582,
            0.2493570878977279,
            0.36224030247410866,
            -0.3885033106102047,
            0.6504422765544304,
            -0.6436319006847878,
            0.6156696699678851,
            0.512306821302104,
            0.2758012719194795,
            -1.0404884043796492,
            -0.6817345035190561,
            -0.22574240580288052,
            0.42720087577824656,
            0.3098613647505128,
            0.528496071242587,
            -0.4562629798490986,
            0.1642019517478575,
            0.5680072227650426,
            0.39794901139809213,
            0.007997916315323206,
            0.7711345943376658,
            0.5849833371887293,
            0.022493853572577757,
            -0.8485846189672156,
            0.7313282216658064,
            -0.7622808828287501,
            -0.35261140855618744,
            -0.6168401308154629,
            0.5588266046943902,
            -0.9802301084990321,
            -0.6160155891092031,
            -0.1842166053619801,
            0.2201780385502257,
            -0.6371242138617254,
            0.8682909708185915,
            -0.03684870929086285,
            0.012374752975242709,
            0.3380549182119619,
            -0.6929313465113225,
            -0.01979708256040644,
            -0.7097225392682605,
            0.3435023797808334,
            -0.26073772293757075,
            -0.815795247113549,
            -0.9902321763439226,
            0.26883412522959416,
            -0.9275048218042985
          ],
          [
            -0.3494173891655341,
            0.394442349187588,
            0.8059347926414306,
            -0.481073581286777,
            -0.9683890006441443,
            -0.8239262933942723,
            -0.07698616740749704,
            -0.6761264056680766,
            0.1374972820850764,
            -0.09590720609600933,
            0.4365481142801241,
            -0.44206140820929907,
            -0.90610958321865,
            0.9024221719291549,
            0.835249889935697,
            -0.3767648284377286,
            0.9051623282340244,
            0.2635941238835055,
            0.7573185542596674,
            0.7679799226469157,
            -0.6282508190576446,
            0.3105656304331945,
            0.4652898701834282,
            -0.7425462408411381,
            -0.7137903571838791,
            -0.27293073894556136,
            -0.5422574171063504,
            0.8883688635398053,
            0.50389636627002,
            0.15907834305405363,
            -0.8165426300759064,
            -1.0056190979822632,
            -0.06898170552423785,
            -0.9354461916057416,
            -0.40118892914110654,
            -0.7308355147853912,
            0.32139111945577326,
            0.8600155406686648,
            -0.3347457298857301,
            0.6929536306793275,
            0.2999502322417823,
            -0.38141432209818427,
            -0.7625567295964601,
            -0.8302627810742333,
            -0.5543220081101341,
            -0.4570454053852202,
            -1.0118284355619838,
            -0.03201389107334189,
            0.14010506625731098,
            0.47435192668168097,
            -0.576402661714444,
            0.6236681489374251,
            -0.5247351783224808,
            -0.9754070525690667,
            -0.5878330090430426,
            0.9128117517831155,
            -0.9801067294450766,
            -0.4193147673639275,
            0.42599217079012286,
            -0.4403598832884046,
            -0.5988296004423479,
            0.08530750981161486,
            0.7740787897588219,
            0.44968393784043575
          ],
          [
            -0.3427329672937031,
            -0.08637195946180838,
            -0.1699095905739423,
            0.6611537542158016,
            0.09894061227319441,
            -0.7927742458805486,
            -0.08258633393258619,
            0.7357661522193025,
            -0.08833304609480068,
            -0.04630512278110854,
            0.3905397389625866,
            0.3522815833181402,
            -0.16182384127559019,
            -0.7141162501119649,
            0.3832021202022035,
            -0.5709069808050546,
            0.2518203880819508,
            0.9337687656523321,
            -0.12630479818764798,
            -0.370757543009783,
            -0.8540788313043212,
            0.42128588145196155,
            -0.8825276592232097,
            -0.5393784132597191,
            0.7275320306521215,
            0.29991131458937165,
            -0.888347046525504,
            -0.6587641926666987,
            -0.6411901726593705,
            -0.8696767790725634,
            -0.13775826973749034,
            0.36938554464777074,
            -0.2460678351991792,
            -0.755391834470712,
            0.3552038541705723,
            0.15033001883610508,
            -0.38944475440877274,
            0.6550440636632856,
            0.728727333050293,
            0.6006004296363503,
            -0.74998365985507,
            -0.48903550312072036,
            -0.8948399768715426,
            0.6493893434044344,
            0.7864114563210224,
            -0.23755280568322096,
            0.1066289464340277,
            0.8244103921655042,
            0.7758122986927635,
            0.8653322263558464,
            -0.2984075732841599,
            0.3320755410232465,
            0.026940384782888804,
            0.8664011252089623,
            -0.0946439773897394,
            -0.6038205640308165,
            0.8352021361359041,
            -0.8999172375014549,
            -0.3867231288853244,
            0.8868864295292767,
            -0.5308346047949931,
            0.16760534469113164,
            0.13400115577546137,
            -0.8267487915738426
          ],
          [
            0.02760914357246035,
            -0.04249709673469982,
            -0.5636071766263916,
            0.14243552207953952,
            0.23896198963405882,
            -0.054075850763301424,
            0.07441064552192998,
            0.8674228274731596,
            0.4899014423966514,
            -0.58404604125452,
            0.25959773860704527,
            -0.5809186870013208,
            -0.5411197449011816,
            -0.8926976622481617,
            1.0027872466473,
            -0.25693255173209517,
            -0.9959652614327684,
            -0.8413715999393272,
            0.19523304173094297,
            0.7716030124135235,
            0.003510010265075869,
            -0.41672672016046897,
            0.4787157654431839,
            0.5749845003176566,
            0.13009680524129683,
            0.24588520935646263,
            0.7572623155946724,
            -0.4288290977949058,
            0.012114288445679753,
            0.110780726972341,
            0.06149307364371745,
            -0.6886283039261679,
            0.7265661414643021,
            -0.47015026362352463,
            0.5925880237008545,
            -0.670353663531635,
            -0.6923346609579127,
            0.6602850338510137,
            0.6385162210045168,
            0.3395603136795575,
            0.2187150956036369,
            -0.7994432562754179,
            -0.9275155779225487,
            0.43535260794310165,
            -0.22388120432116407,
            -0.1157450876002342,
            0.22131326978590393,
            0.22684735302757672,
            -0.21367136927828445,
            0.10287867974291905,
            0.14426756366983637,
            0.31852784174255666,
            -0.06548116094985573,
            -0.6744875155735034,
            0.8330728960358709,
            0.27948413125193,
            -0.7600436878170757,
            -0.37815812870750154,
            -0.8418302262788466,
            -0.6566810825380056,
            0.967616742406936,
            -0.9016162769946064,
            0.3808377246054148,
            0.07996264862159673
          ],
          [
            -0.5963097022770276,
            -0.03459033764194858,
            -0.14571016151329988,
            -0.4464858267046008,
            0.33952947353274643,
            0.2629493899711309,
            0.6915934750115152,
            -0.08287366846728994,
            0.20256166316837337,
            0.6124240511556831,
            0.8509390086510705,
            0.657880144981327,
            -0.6267483659022981,
            -0.27356966428473234,
            -0.9455319598455599,
            0.08044883945184722,
            0.9088582626509948,
            0.5911615826344371,
            -0.725102867555919,
            -0.5699252575117892,
            -0.5480367072829537,
            0.07301406538197032,
            -0.12698364534125853,
            0.3590996759076256,
            0.2844055370997459,
            0.9373362668065554,
            0.4221736809325035,
            0.1381273190575413,
            0.7159524721075519,
            -0.739635090315625,
            -0.442873628577237,
            -0.6936879402967234,
            -0.6363461234998471,
            0.29180933645352736,
            -0.8962282921666745,
            0.6015401645457056,
            -0.09468286802120196,
            -0.6784280395173006,
            0.9698251170682521,
            0.5005228235322213,
            -0.2848231607248504,
            0.9891456191783539,
            -0.5164868507604623,
            0.3316972780375859,
            -0.7032743627659684,
            0.3289444227680277,
            0.6257485290845561,
            -0.4753225917848744,
            -0.7100070221296685,
            -0.5740984741502306,
            0.6120106462424985,
            -0.6546568980277125,
            -0.15392625372606553,
            0.03956414664486818,
            -0.48320248097439555,
            -0.1264135065727508,
            -0.20923793601060836,
            -0.42857908609973283,
            0.7496100672905308,
            0.6647199898056709,
            0.9057733521451541,
            0.5362943752414437,
            0.2786685176459008,
            -0.0750152182876374
          ],
          [
            -0.51880262464524,
            -0.34861414806181706,
            0.099100808409096,
            0.3991427426290171,
            0.7032172078985157,
            0.6992275603356546,
            0.21680739158264967,
            -0.11017670935891484,
            0.8934832566840166,
            -0.500377078668118,
            0.7481760765818708,
            -0.666672440930842,
            -0.31604411516262065,
            -0.3350773410542462,
            -0.1637183437821537,
            -0.8352674259911791,
            0.12891351509328117,
            -0.6665864306436972,
            0.693939850785579,
            0.5040984015485122,
            0.8465291335323072,
            -1.0032583898609935,
            0.7325281885116642,
            -0.25689836447193454,
            -1.0078502342476765,
            0.5905670919127383,
            0.6711623571492618,
            0.5597932396731102,
            -0.9094264366404208,
            -0.4019216810780686,
            0.8435172626425935,
            -0.12926283270093697,
            0.15467421840680237,
            0.11225227718358147,
            0.1688930608071625,
            0.27006634516803724,
            0.373458356955014,
            0.05084634862798454,
            -0.013881668113005396,
            0.05863973755507685,
            -1.002879028874437,
            -0.06463604319585259,
            0.7232191943368451,
            -0.6913653731563449,
            -0.0714374654109121,
            0.6118604401578165,
            -0.5765551512896827,
            -0.10928872911259745,
            0.9664391775445081,
            -0.44706440079984827,
            0.3360430480969579,
            0.6434438511180496,
            0.20757852596440965,
            -0.1507265083173417,
            0.07883218816260369,
            -0.00579849583295019,
            -0.8564713722921278,
            -0.05590345132441881,
            -0.68614574980734,
            -0.9015434261111002,
            -0.6319969901121638,
            -0.5405252462537659,
            0.7987143490687488,
            0.0394168027603092
          ],
          [
            0.5823372705619675,
            -0.41026915809852565,
            -0.7472937073328954,
            -0.05728507878182589,
            0.21845921486344486,
            0.5657382101679234,
            -0.2140476896912771,
            -0.7965246366767611,
            0.049828591331924646,
            0.3399037205689557,
            -0.4549177837880387,
            0.5433664172146592,
            -0.7205506971017297,
            -0.7989325645155793,
            -0.6510149144556584,
            -0.05256078982999439,
            0.5976017858918252,
            -0.44675710801028,
            0.07713227798407044,
            -0.8280487527258323,
            -0.2692081898559388,
            -0.520464664341291,
            0.30007837798367737,
            0.5666680943493384,
            -0.748539527947786,
            -0.015212309796300654,
            -0.37205857787998453,
            0.6075808970427957,
            0.9387722060140958,
            -0.19341634949461134,
            0.8087579311214372,
            -1.0002327272964584,
            -0.568747578534409,
            0.75397904276774,
            0.156201829582058,
            0.8163960032934956,
            -0.7412357729365305,
            0.3681650498865085,
            -0.5862129930876536,
            -0.5404580766770394,
            0.5292803720351326,
            -0.7208791301798065,
            -0.7845029911571972,
            -0.7406341887256043,
            0.13496554910388286,
            1.0407921995346587,
            0.2063354884056317,
            -0.43019390811554287,
            0.24664602369905242,
            0.1008620723481544,
            0.6750387539481234,
            0.783453617927684,
            -0.7618614590818176,
            -0.8529029502185158,
            0.1665948031082176,
            -0.43939772003649313,
            -0.5797864065943727,
            0.8251100679881943,
            -0.17896162364176993,
            0.4245328339007535,
            0.2724853237105725,
            0.056566997687902916,
            0.08556668417979824,
            0.6089717474763257
          ],
          [
            -0.36099246767749327,
            0.11920506821582655,
            -0.704889439453336,
            -0.5957231858048663,
            0.05080726364060926,
            0.7724524937698148,
            0.8905506798940449,
            0.5219579588181308,
            -0.08776034912944629,
            0.8213362650645587,
            0.2969856131600096,
            -0.4312416288547235,
            0.5181816940625061,
            0.15191711445547676,
            -0.9904628689709146,
            0.7315902809710034,
            0.7645263238693614,
            -0.017800262850374803,
            0.34660188202996184,
            -0.7762797969995875,
            0.19850846509845796,
            -0.933841648831668,
            -0.16199060642686625,
            0.6889129900294617,
            0.8990587938911546,
            0.5291198201076458,
            -0.9833242463783819,
            0.020375336078193654,
            -0.9271157238715311,
            0.08183977956715772,
            0.939599367653772,
            -0.8639954861590132,
            -0.7315400807729767,
            -0.6499525406388096,
            0.4557247032760923,
            -0.812193720021433,
            -0.19409099285357706,
            0.03012975794821915,
            -0.6539383829348693,
            -0.3152218285549662,
            -0.6124584176843642,
            0.050332200600959,
            0.4576003013880851,
            -0.24062648861913133,
            0.29644540500122063,
            0.4607593985121306,
            -0.4683394368404177,
            -0.10645362034616654,
            -0.00027034219669734116,
            -0.7954695606871562,
            -0.2912370122570376,
            -0.04910539216290544,
            0.3964809454053969,
            0.32689346852311796,
            0.38403363213611497,
            -0.5302607928970899,
            0.8530573935177708,
            -0.11623066010998168,
            0.9160935947278825,
            -0.5126772683517753,
            0.14432426857830227,
            -0.9352678946305164,
            0.4283172772267649,
            -1.0087640585499484
          ],
          [
            0.21352445111848103,
            -0.6193188686120821,
            -0.15935181606582483,
            -0.29822471180525456,
            0.7011849975457229,
            0.4498713728134524,
            -0.3993024767381969,
            0.5600686322311484,
            -0.019811191171960923,
            -0.9269674975625433,
            -0.3547979977022812,
            0.6348285111310239,
            -0.9235703385708554,
            0.8483969565689056,
            -0.9194621988452287,
            0.7353785664410821,
            0.6499026460369483,
            -0.8599055852843632,
            0.022004598504990338,
            -0.668948330224685,
            0.8698480139524386,
            -0.06459807124238374,
            -0.7808108103412147,
            -0.533146833770936,
            -0.29881637303570074,
            -0.7705599103749434,
            0.39273073348994597,
            -0.6819076369588297,
            -0.846159534102657,
            0.10860371661140683,
            0.49252678165473146,
            0.3817863251493839,
            0.4076008670543756,
            -0.8999865887484999,
            0.7408459375529772,
            -0.18914435397049612,
            -0.4729430565553133,
            -0.9610754248820859,
            -0.9917003226075058,
            -0.5066448307707809,
            0.22030411682092607,
            -0.2778793395744076,
            -0.0284474829897996,
            -0.2823054690991883,
            -0.6886089188247703,
            0.9310542584923127,
            0.6871032141442236,
            -0.6143042368456573,
            0.012512092805055238,
            -0.2569186375288555,
            -0.4695808662543456,
            -0.5207701345377292,
            -0.9313298196574168,
            0.1970867079678403,
            -0.20685280175986082,
            -0.5739591425808221,
            0.329625654010483,
            -0.01290744182649095,
            0.5227713883039272,
            0.8152803132892577,
            0.31921525829075315,
            -0.5980362361309688,
            -0.520547670857064,
            -0.24331445978754476
          ],
          [
            -0.457759088904035,
            -0.6499124754077344,
            -0.22238864472106054,
            -0.5990541861488919,
            0.7431513710881037,
            0.48472231850510045,
            -0.09096850553845169,
            0.8413142653237646,
            -0.12253300202812342,
            -0.6231225027484693,
            0.6677371726409731,
            -0.8461483652787392,
            0.8452836180300243,
            -0.49744091331962664,
            -0.35306384500728766,
            0.12886180392168067,
            0.3767713954516859,
            -1.0118925789554851,
            -0.7271082363383269,
            0.7403970360498426,
            -0.6710942071092842,
            0.7812295680734791,
            0.5839179100658278,
            0.19852008088000297,
            -0.238010129314872,
            0.49014974713292386,
            -0.3595328757822674,
            -0.5255871360679332,
            0.2646320025131774,
            0.5061380177613566,
            -0.887279864905977,
            0.07637247787906887,
            0.7095358859657717,
            -0.2744324896758845,
            -0.6977423155737716,
            -0.37451297973086833,
            -0.4108523616407739,
            -0.22844262827501258,
            -1.0242850151542697,
            0.33840494597396464,
            0.6342165504864435,
            0.22801232037532934,
            -0.4031563856779318,
            -0.997606677656932,
            -0.4008047621863622,
            -0.354264357202851,
            -0.11028304477781399,
            -0.45674136362053114,
            0.3817091483549216,
            -0.6149716174657365,
            -0.5265761521133044,
            0.7824152759735882,
            -0.09850728480413783,
            0.7476494176590922,
            -0.40033389334874014,
            -0.5383170110188842,
            -0.6460170974896478,
            -0.992173847639723,
            0.2575881313710415,
            -0.5162010497605465,
            0.6992425894894312,
            -0.7682025709644883,
            0.15596553327251353,
            -0.06617847617031843
          ],
          [
            -0.9833508537823494,
            0.5508575159561988,
            0.9576227224661942,
            -0.6407667169059644,
            0.43867513668093616,
            -0.23028277276503956,
            0.8648535724317288,
            0.2574631640417817,
            -0.32643683210638297,
            -0.6247630920737759,
            0.5849059423580891,
            -0.267767869054664,
            0.6859230631220549,
            -0.5599645189893782,
            -0.15108616404981115,
            -0.4428550131584498,
            -0.7308512812013285,
            0.9421494645908534,
            -0.5975048344602134,
            0.24922587126917647,
            0.9504533437251425,
            -0.42068903894384885,
            0.8519745685953511,
            0.8042834135924347,
            -0.5263283253907367,
            -0.6139913582019463,
            -0.9557976793486268,
            -0.2639023428270707,
            0.4977035635819578,
            0.5841544055379837,
            -0.715063314007213,
            -0.0172668174758992,
            -0.6674229102194206,
            0.41608529867816596,
            0.1555046074057576,
            0.10690284496648715,
            -0.6917616904655266,
            0.6310089127215901,
            -0.15417746953181588,
            -0.47971998589861087,
            -0.5770230933158742,
            0.7516249092208414,
            0.503327235793541,
            -0.2384661760009873,
            0.5360330331651928,
            0.6484101989675127,
            0.4395172077524172,
            0.7033001900038366,
            0.3910052016251032,
            -0.7966735214163584,
            0.6163154219963363,
            0.5404916292189201,
            0.14860277133427152,
            0.7836037011942079,
            0.6605678450673802,
            -0.24380611138533126,
            0.22495363936381216,
            -0.9619544865222486,
            -0.8567939270526932,
            0.7350607423673479,
            0.44772118661200605,
            0.3192596907033809,
            -0.9511911409496866,
            -0.8563518211356195
          ],
          [
            -0.3953620662920508,
            0.8791637271883117,
            0.39175973241279877,
            0.019392770632440447,
            0.6297850099984948,
            -0.05864426125436951,
            0.7931188169733492,
            -0.49522267342917964,
            0.1157506357285605,
            -0.30181256682257745,
            -1.0124853718362246,
            0.33836705851652926,
            0.9192685456672095,
            0.3284497952948779,
            1.0089850310159751,
            -0.7814586794330606,
            0.08661458279533113,
            0.0916102760654705,
            -0.3210702417370715,
            -0.2444005837847097,
            -0.540912311963299,
            0.42574096898249647,
            0.6926662766635702,
            0.8832963385310052,
            -0.9435038282351783,
            -0.7362173076736985,
            -0.6242294388397256,
            0.7425903673423454,
            0.5521168564095955,
            0.31511589372459325,
            -0.3691211740227383,
            -0.33202573152446874,
            -0.3703630281424668,
            -0.3476793589202632,
            -0.2636662696225471,
            -0.5323693694319993,
            -0.5869380584453486,
            -0.9213274709077119,
            0.79813212490522,
            0.7835633692674463,
            -0.36495689237526113,
            0.3557699385601651,
            -0.105736388412916,
            -0.1912021164922689,
            0.24128489619199858,
            0.3827914426325708,
            0.4557810675671311,
            0.22795928769708884,
            -0.8644072107384743,
            0.16114175493499291,
            -0.06698517984120388,
            0.611774643889042,
            0.6001642436007971,
            -0.018436147411023063,
            0.4556014103256487,
            -0.9635670461388103,
            0.9538607403963572,
            -0.45951544862210303,
            0.34214835878667504,
            0.8472069008172584,
            -0.12594714202024782,
            -0.880462818942467,
            -0.160816641396701,
            0.2932652510891981
          ],
          [
            0.19283042412935317,
            -0.6104873741808735,
            0.32614671832432374,
            0.3720147242734288,
            -0.37008053677690633,
            0.1400917598962214,
            -0.1257589716196236,
            0.6906782505189117,
            -0.09591592730535388,
            0.9993574306060223,
            -0.46844357359311384,
            0.7831560592695324,
            0.21005039652061183,
            -0.7259897185765674,
            0.9442107093281878,
            0.1450086726965123,
            0.8457522787962799,
            0.8123899402805533,
            0.6505546710232645,
            0.7832772470492493,
            -0.41721911603385986,
            -0.4159522987364909,
            0.7791241629188548,
            -0.6177871145665819,
            0.6423610175268665,
            0.6040988132060604,
            0.8945784880957116,
            0.08578622051903208,
            -0.2179140544911498,
            0.22463769597334213,
            -0.9587500834499334,
            0.003286810069268268,
            -0.3595022634687268,
            -0.9010541969946725,
            0.35218993981189994,
            -0.7427908746271334,
            0.18800187857912737,
            -0.025464235935718827,
            -0.262138129539812,
            0.75332165768429,
            -0.21445044020169587,
            0.9730339154588212,
            -0.35935892542347736,
            0.8639658706098231,
            -0.6004237117570446,
            -0.7704403631466481,
            0.7836704921604448,
            0.5726832264021219,
            0.5665592777769054,
            -0.41432077022090474,
            0.876583234069242,
            -0.2601699917732775,
            0.42781604482711777,
            -0.9698744118759117,
            0.6873175692198092,
            0.14523057741409215,
            0.7642034389240778,
            -0.005927227923393175,
            0.278219134037682,
            0.9686804159199484,
            0.7933360498884269,
            0.41011539898496113,
            -0.6637583479448192,
            0.37050396894448223
          ],
          [
            -0.02160392732435385,
            -0.4247646505791233,
            0.06670201127321282,
            -0.13567826049865125,
            -0.8279188056026895,
            0.746327350528067,
            -0.4228442334552118,
            -0.9834047158808265,
            -0.40122072020275323,
            0.46057655730002517,
            -0.5067716541896445,
            -0.5763918632752536,
            -0.32660185610090336,
            -0.458715280075105,
            0.5709519015553435,
            0.2840554523530032,
            0.8783914989481463,
            0.639115462910558,
            0.674255687691642,
            0.682735119459756,
            -0.21250529633134863,
            0.5178154265402154,
            -0.2339215370003233,
            0.12731048262929795,
            -0.5922917761210724,
            0.029415856319564587,
            -0.3457588222595055,
            0.6450629919693592,
            -0.8315881824920348,
            0.2747654450899103,
            0.645123662249796,
            -0.07180337980803769,
            -0.9367494636130315,
            -0.6628033797789155,
            -0.38317965372588086,
            0.5866807629772371,
            -0.01374563946055802,
            -0.9200908234287754,
            -0.3217187413557683,
            -0.16581893029511025,
            -0.21677126955566192,
            -0.37271317359624845,
            0.151320232137504,
            0.005415690216380944,
            0.19407324434809997,
            0.24980041812368198,
            -0.501889376596733,
            -0.8731594508718182,
            -0.2593061758005262,
            0.9693280133100247,
            0.14573923488143098,
            -0.2636068429099681,
            0.7469979178084154,
            0.4937833190293741,
            -0.8703035095316928,
            0.2721914167777487,
            0.367979544456586,
            0.08330027778124945,
            -0.633598449273094,
            -0.7189690107051182,
            -0.754720345038058,
            0.1434911637057799,
            -0.013913256727599238,
            0.2748737939012955
          ],
          [
            0.8249924470641082,
            0.5122194378020695,
            -0.9186517193092014,
            0.44443748090744656,
            -0.9473086989916333,
            -0.07326046075672445,
            0.2960697713679394,
            0.369963861786123,
            -0.5072864009765767,
            -0.13771374642610515,
            0.39108404472757596,
            0.6138564117220201,
            0.7538559054006156,
            0.3979888177642994,
            -0.3484081287350828,
            0.4135014406308012,
            0.394961874174284,
            0.6755026979310099,
            0.902606810976008,
            -0.20700985402189695,
            0.41932378270028053,
            0.9477428149764088,
            0.7011544763092401,
            -0.39442462571110976,
            0.8508439893316865,
            -0.5921883464859026,
            -0.9269922847018085,
            0.5259285547770544,
            -0.7059782424820317,
            -0.07493052518204422,
            0.42683717911564034,
            0.30531729754231357,
            0.19327838915967685,
            0.33793809097748245,
            0.38898041594481225,
            -0.8899765543330873,
            -0.14292934062489784,
            0.2594174964683812,
            0.39073946500716916,
            0.7092081907420609,
            -0.7512825595792456,
            -0.781610612663477,
            -0.3289162725786304,
            -0.22354707622263237,
            0.3887147881527652,
            -0.5991738588053946,
            0.7190383735290439,
            0.4655060388107345,
            0.2964487235969615,
            -0.9945358622383471,
            -0.07833002495421826,
            -0.0814514808082243,
            0.140506105851912,
            -0.9506221890963259,
            -0.5946723946984034,
            -0.1684089118523753,
            -0.8900873588397648,
            -0.879214062966674,
            0.33404104193728057,
            0.585310977560827,
            0.34979395156831466,
            0.3606084168436543,
            -0.3504208381365662,
            -0.4930766483599149
          ],
          [
            -0.06935482727717843,
            -0.4777529576125145,
            0.4536226950817687,
            -0.04334137185337757,
            -0.4137010652473006,
            -0.8708905374898415,
            -0.186038171317507,
            0.632243322351844,
            0.5931669870561052,
            -0.007794598113364024,
            -0.6725374503259853,
            0.13397430152548948,
            0.24158726768075425,
            0.8469605158893336,
            -0.7936763412181981,
            -0.9786227641438706,
            -0.31736320003837404,
            0.8814378904774847,
            0.5087198748442197,
            -0.4272811713605855,
            0.8492827209677031,
            -0.2911057079180989,
            0.865902893813418,
            0.9201849971926327,
            0.40161500729612365,
            0.4514652220117042,
            -0.2783153521683938,
            -0.617174532392124,
            0.7809973902732488,
            0.7638589835938071,
            -0.6069576534523805,
            0.5604764563008495,
            -0.2205080703582293,
            0.4220890211226832,
            -0.8507968697262774,
            0.8882791543512386,
            -0.6619605223652851,
            0.30538045815729054,
            0.613220451841969,
            -0.27340745356843044,
            0.2620126966545628,
            -0.3544686027794919,
            0.7917211332930363,
            -0.3309037022992698,
            0.903235969818393,
            0.897665915123634,
            -0.7837162834617017,
            -0.7035355493937933,
            0.2651873859970555,
            0.7213858115236133,
            -0.25658686919023377,
            0.4466494596232572,
            -0.024583605909084563,
            0.720170708431678,
            0.7035203535269379,
            -0.9481772469513677,
            -0.1959503937526536,
            0.30240830475745495,
            -0.02839058626272007,
            -0.19173948973747346,
            0.6204468682546953,
            0.11645003440507791,
            0.5179341128276441,
            0.8966225467861494
          ],
          [
            0.023713750221653902,
            0.32661297091138713,
            -0.002476150979405274,
            0.27704836493272794,
            -0.05427524951260473,
            1.0557185569341587,
            0.39001414004216645,
            0.0228427399504707,
            -0.7239074602113328,
            -0.7714122914346453,
            -0.17980411480641426,
            -0.4516862207186799,
            0.7736420120086526,
            -0.8404862281240492,
            -0.3337778594006081,
            -0.9046791742576605,
            -0.6078845273754534,
            -0.19687856313119098,
            -0.8830996924922959,
            0.5029979355430075,
            0.523203538585811,
            0.7595894605042379,
            0.6341636560918621,
            0.27275247457548696,
            0.43967739947336953,
            0.7241323122944807,
            0.3475809991430743,
            0.8228598098572577,
            -0.21729054919822854,
            -0.677151222527805,
            0.9159276010845888,
            -0.4532603333630992,
            -0.7582054999577067,
            -0.7905816921347487,
            -0.6859174496261013,
            -0.2977104474695863,
            0.5461748215646268,
            -0.515456915790669,
            -0.903065828730762,
            -0.33360399064321206,
            -0.7489035002914666,
            -0.02401095070862389,
            -0.8425647779977088,
            0.3924018119255151,
            -0.8375900417136168,
            -0.25481800442848995,
            -0.09594987522291186,
            0.900488034201406,
            -0.9670842196996409,
            -1.018847509347454,
            -0.7383824190969149,
            -0.4584590514446306,
            -0.6442734482403994,
            -0.9043994618730077,
            -0.27820019071866947,
            -0.35810939573553907,
            0.3257054036267425,
            -0.16514715109079126,
            0.0065817840119957475,
            -0.33328106187755135,
            -0.03472548615254472,
            -0.6494657050271084,
            -0.6185996729103624,
            -0.9467759965363381
          ],
          [
            0.9522127800881335,
            0.035398537375833435,
            -0.20563805064300106,
            -0.23009128136786614,
            0.7534480598497582,
            0.8271567348655905,
            -0.33344351925851723,
            -0.908797517065679,
            -0.8413297678721874,
            0.2883047157379166,
            0.7759492385123578,
            -0.37759606486013436,
            0.35856017135479157,
            -0.6357140965625608,
            -0.719675597368167,
            0.35043100125027826,
            0.5698268847458356,
            0.6324023968219158,
            0.5225686585484186,
            -0.5942313443804392,
            -0.8460649982119901,
            0.5004720712574083,
            -0.8453341243201061,
            -0.5984032113193536,
            -0.13814798173952264,
            -0.4943798098101617,
            0.8674672751899926,
            0.6151570487052834,
            -0.5436575795675976,
            -0.842101391463958,
            -0.4037655662647289,
            -0.3135813468613177,
            0.6356714669654613,
            -0.23193537629503097,
            -0.5630633379508893,
            0.3431915019531464,
            0.13714024713640408,
            0.38896358092554256,
            0.09036870723990623,
            0.7570782634866597,
            0.18615284832966758,
            0.07869599899148778,
            -0.3084553655940364,
            -0.30849297604835757,
            0.4902574061508191,
            -0.7853743687787846,
            -0.08079130703715032,
            0.3748668556244964,
            0.12181112810757098,
            0.07744278594529215,
            -0.41227442587239305,
            -0.4826294684257231,
            -0.47052443302684377,
            0.21404453886271382,
            -0.485642759707865,
            0.36232259039497233,
            0.1355436026553123,
            -0.7712128835322303,
            -0.021006385811000193,
            0.33275556484523305,
            -0.9108316728674365,
            -0.2844132730827482,
            -0.29624930798681764,
            0.9097769210463293
          ],
          [
            -0.7927707005820641,
            -0.49592137898066874,
            -0.1862530226595995,
            0.7084328388095642,
            -0.196615710656403,
            0.7993990852835479,
            0.9730621399362982,
            0.38514548061890447,
            -0.9581001071275593,
            -0.6423336014269317,
            0.8260259294128015,
            -0.20768588134583424,
            -0.7831783892681392,
            0.9661997518082477,
            0.5495870595795649,
            0.9530750309112999,
            -0.9917391556197542,
            -0.6860275348787634,
            0.9777665676509142,
            -0.9062450023344732,
            -0.29501840586828804,
            -0.17993216498864373,
            0.3311930545647216,
            -0.37217101589385726,
            -0.684467415951814,
            -0.9788385228667754,
            -0.37436642209058074,
            -0.3254569185254899,
            0.9201561043006639,
            -0.7375981829881094,
            -0.8324216606601478,
            0.14784569242475232,
            0.7657846420319782,
            -0.8061671845978177,
            -0.8562323907434853,
            0.6293975988334516,
            -0.7583502558475501,
            -0.6480897729408104,
            0.8005466180812686,
            -0.35209374293984325,
            -0.059227343701570005,
            0.5667744186488157,
            -0.45665334135354846,
            0.9323557100064302,
            -0.9192009889074227,
            -0.11879209900030419,
            -1.0051708341786154,
            -0.16223920978134435,
            0.38419604685041486,
            0.48776001364217936,
            0.1207471516479296,
            0.7296480252144871,
            0.9530676458791304,
            -0.5356088975703103,
            -0.555041750907339,
            -0.8093871869151719,
            0.2867804584774882,
            -0.10317414925462656,
            -0.3112511521859969,
            0.9355434348034748,
            -0.7533472377901003,
            0.4744203938512832,
            0.5037794937009223,
            0.43559439150987006
          ],
          [
            -0.807389764303135,
            0.5699106979861345,
            -0.31450135879426755,
            0.5743332143250434,
            0.7103396233980638,
            0.1420305895379458,
            0.4132080746848945,
            -0.9059541670022759,
            -0.9484327559544331,
            -0.23830111291651254,
            -0.8404539908933748,
            0.9860622831714069,
            -0.8387660069075776,
            -0.7129358266395738,
            0.8616079966033166,
            -0.9958879640534207,
            -0.0729179589818254,
            0.37458601841703765,
            -0.7052034595695639,
            -0.6633308602251385,
            -0.21740934943337106,
            0.12480465421397086,
            -0.3897691630414237,
            0.1402299494916307,
            0.6591199508341192,
            -0.18284829971984531,
            0.4797396325152072,
            -0.9314739124966732,
            0.3100571992475477,
            -0.5710057632191616,
            -0.11253788748671627,
            -0.852918986099387,
            0.5555011137016274,
            -0.3228729603592097,
            -0.7009633854646793,
            -0.053784763610453645,
            0.3536437945818156,
            0.7596603682145526,
            0.9701195975834098,
            -0.43272859379037937,
            -0.6839902242162854,
            -0.006771434161807593,
            -0.769543211216694,
            -0.6316479348459961,
            -0.18576979251274056,
            -0.2944187904566978,
            -0.7576478708610638,
            -0.2950708155122718,
            0.5424956336195668,
            0.18987790064606389,
            -0.43538882344095886,
            -0.947538990392844,
            -0.5381083453941968,
            -0.8214802733447691,
            0.0511097147644944,
            -0.927001051859101,
            0.13443021355415152,
            0.38478344900454836,
            0.35844555296768443,
            0.28942469687499406,
            -0.752733289805243,
            -0.7992898270860651,
            -0.0527541668395399,
            -0.4684790250087202
          ],
          [
            0.7010044233722726,
            -0.5473682384529078,
            -0.17800309738294254,
            0.06720732288684794,
            0.05721614868337261,
            0.8226037026954763,
            -0.7473429835010336,
            -0.8456197932020242,
            0.8079110899143127,
            -0.6963036874752957,
            -0.97443566313036,
            -0.4424189697766111,
            -0.576952532775852,
            0.10736373084735518,
            -0.22759813663409165,
            -0.16393667073682694,
            -0.9299168818406631,
            -0.5004788841808361,
            -0.22116000621452248,
            -0.8706608052751899,
            0.05075187704778022,
            -0.4458246901716232,
            -0.3123732846809374,
            -0.3809132202235157,
            0.01542034409731941,
            -0.5489486678509033,
            0.8809301654024771,
            -0.7520433861524973,
            0.8462856291949129,
            0.868315759872164,
            -0.663330155321033,
            0.14207904347292585,
            0.9063661810542696,
            0.7896426735098573,
            0.9252011376578201,
            0.7442771590306766,
            -0.6285588214586162,
            0.37115126979721624,
            -0.7464596895962828,
            -0.1617956906159654,
            0.9454212651062796,
            0.5086488366635837,
            0.055985696360579006,
            0.2742804762656067,
            0.1009610272793413,
            -0.17601188138620358,
            -0.504527619147453,
            0.08435066697002412,
            0.7255032600273087,
            -0.041791928764083476,
            -0.061536000960182226,
            -0.2042929513043258,
            -0.8016866888995491,
            0.29343415557256236,
            -0.5555288267376371,
            -0.8137686325377086,
            0.012143890165165993,
            -0.29846091621538057,
            -0.2716931176852086,
            0.7118993918437934,
            -0.2718499644026473,
            -0.13403051323615453,
            0.5426990684449224,
            0.5216493114715134
          ],
          [
            -0.5095683395268809,
            -0.2191254944290933,
            -0.4744823735646691,
            -0.2791989546183016,
            -0.3683141708135175,
            -0.8026987104032041,
            0.8808607962869204,
            0.38137934268491364,
            -0.9595872153260362,
            -0.7730907246869013,
            0.6957133591646638,
            -0.6420058898214588,
            -0.9449695150358179,
            -0.5033085284976901,
            0.5174433518376924,
            -0.4676531649607592,
            0.24828313147558237,
            -0.1376839278023001,
            -0.374753184928239,
            -0.6095567256824664,
            0.7554552629592617,
            0.14514935320142255,
            0.8484024196125419,
            -0.37588573280611437,
            -0.3947851807584019,
            0.5390127726221462,
            0.0700430876043367,
            -0.33177135270538505,
            -0.2896316255041045,
            -0.7495450748601453,
            0.7432225182514717,
            0.3337685044868835,
            0.7039385126505625,
            -0.09213974320940822,
            0.058377908126391986,
            -0.8633998402310843,
            0.5022120713429001,
            0.11010615116683353,
            0.18326608474771944,
            0.1210307896379776,
            -0.6046445392837693,
            0.4536122993895987,
            -0.7179622472741956,
            0.1051713229248985,
            0.8892558861044852,
            -0.5694667125855829,
            0.230874583257005,
            -0.4790220265939298,
            -0.4156911639844606,
            0.29381733024110324,
            -0.48038086160151744,
            -0.03564941676317637,
            -0.9940437234558419,
            -0.017825836814328033,
            0.768007692884131,
            -0.2251014344547605,
            0.4517905438526404,
            0.12346864927709066,
            -0.7833798327474537,
            0.4403638497685438,
            0.9390288491890566,
            0.5580136191348914,
            0.35417955669879875,
            0.5858596342644447
          ],
          [
            0.43546410592868934,
            -0.4913747705871216,
            0.3919268888775686,
            0.8725131775004195,
            0.510437055843034,
            0.3263975326936893,
            0.03460249519388762,
            0.2835146681310615,
            0.36636921231725883,
            0.8174615632787342,
            -0.8545321188448023,
            0.4749515949532316,
            0.5131633658675742,
            0.9801458787588905,
            -0.8122189176507637,
            -0.7355890313139131,
            -0.4591607448832976,
            -0.9161388432570954,
            0.2403951048504741,
            -0.739388601407919,
            0.7360587898553606,
            -0.5369948947740872,
            -0.052896287780688875,
            0.7419855081627964,
            -0.6376528967203874,
            0.24751655043330603,
            -0.6934821626794812,
            0.6211458982120148,
            -0.922382245578839,
            -0.41839956152232816,
            0.4269889589481592,
            -0.49152401206689644,
            -0.4756221178240726,
            0.13559972835788922,
            0.20149545701563096,
            -0.9102727671680839,
            0.798580802196138,
            0.3059660265103266,
            -0.1737669291453958,
            1.0116300735425212,
            -0.9771032968605777,
            -0.16181513091090813,
            -0.5658735756184544,
            0.33377711558698747,
            0.27521740990263815,
            0.44388240252356864,
            0.5443951737653977,
            -0.8937179557770458,
            -0.17185624500278657,
            0.4329210968265287,
            0.9129818550060418,
            -0.10853282208792911,
            0.19326905168584768,
            0.03787451171809164,
            0.5329308423600212,
            -0.7999171715680333,
            0.7190479386808065,
            0.6268465011324659,
            0.19819654314796983,
            -0.24240788675171066,
            0.15854357948898834,
            0.7011512381545147,
            0.8774317277065591,
            -0.9274889227485561
          ],
          [
            0.11112374169415075,
            -0.9463757724301043,
            0.09402913267261374,
            -0.8767820731269999,
            0.7757601476729553,
            -0.36100363656173146,
            0.3538709842511606,
            0.2916693220889027,
            -0.16838734778042974,
            -0.576575299488916,
            0.8884581710005798,
            0.9586536578842676,
            0.1554929559533454,
            -0.1649254391355378,
            0.5378652922425705,
            -0.7599944060694697,
            0.3858833578093282,
            0.29055378786172137,
            -0.6864401215669731,
            -0.5590214520021831,
            0.11373535696773478,
            0.8105890362924815,
            -0.5906168398143578,
            -0.23376183090969163,
            0.1356224208903035,
            -0.5456226033519783,
            -0.0421466107862075,
            -0.5553589363630866,
            0.12832307339219426,
            0.21069388476322656,
            0.6445647975112404,
            0.5913268331650072,
            0.5068881386246625,
            -0.012053096101048382,
            -0.09668673591503187,
            -0.6794466877876039,
            0.24559976308511902,
            -0.869977179366184,
            -0.5096111736418992,
            0.09298637418483456,
            -1.0090725239961233,
            0.1152352287631094,
            -0.5733674483487297,
            0.20368282252539446,
            0.46860782951925056,
            1.0231664398806986,
            0.8018712536582241,
            -0.6553584579240189,
            0.8786787584883023,
            0.4401095182542725,
            0.4691839071660844,
            0.7017512988728268,
            -0.017310515361752248,
            0.09234120209231489,
            -0.6363397286403774,
            0.8573264427304848,
            0.05176063379310196,
            -0.5755414543933928,
            -0.4189925792613698,
            -0.4750466006744823,
            0.27693186370193773,
            -0.7620478220283293,
            -0.9358143573425812,
            0.40370428769060923
          ],
          [
            -0.9684248535457436,
            -0.019317975283395523,
            0.32625155696423414,
            0.47612099001214603,
            0.3117737452414287,
            0.890623508824881,
            0.940213897940894,
            0.33857656203092473,
            -0.6441410494827337,
            0.7858104047198723,
            -0.8331234093831736,
            -0.18198669879195747,
            0.6043468796224483,
            -0.9558127299515226,
            0.6084456492859633,
            -0.7957637085787302,
            -0.4309097653868092,
            -0.36539566742650026,
            0.3767925299722004,
            0.9479708253232009,
            0.16116324365209722,
            0.48797767803835357,
            -0.33412718382784407,
            -0.6499399715004398,
            -0.7777325566705723,
            0.11121925112698874,
            0.883649999108489,
            0.4289121854598943,
            0.8601226791744072,
            0.07524588516320391,
            0.6675584762127993,
            0.6373162746646612,
            0.34389089324285854,
            0.5490245593563805,
            0.5803946228271506,
            0.37167637863217096,
            -0.7935923240584948,
            0.8951083393628515,
            -0.7558981512933076,
            -0.6407400744184757,
            0.5721631319223733,
            0.39643387730846896,
            0.5652717007860174,
            0.15383705915184162,
            -0.8889110071743556,
            0.989291228117233,
            0.8522457652401324,
            0.05282391881682845,
            0.10782985806891143,
            0.45745396088557816,
            -0.598979644289883,
            0.7759584619741651,
            -0.4777152806902914,
            -0.6919342961984514,
            0.3122620411850983,
            0.6985042587032937,
            -0.675564729528568,
            -0.29480293408084485,
            0.8807068221590298,
            -0.15322205001042388,
            0.030098653487737315,
            0.495059397376836,
            -0.5924102911400233,
            0.2580272899003216
