{
  "layers": [
    {
      "type": "Linear",
      "in_features": 4,
      "out_features": 128,
      "weights": [
        [
          [
            -0.24757812780319743,
            -0.8705453357354133,
            0.22629258838506786,
            -0.6017142144283276,
            -0.8970401989897612,
            -0.2184282097101981,
            0.6355979211711159,
            -0.20912052784049445,
            -0.2491226725304029,
            0.30730660650000163,
            0.4590660899859668,
            -0.5633252117614252,
            -0.2942153094211624,
            -0.7725405274565639,
            0.31719106713581835,
            -0.04697441749730159,
            0.41902913565943384,
            0.43694411301809444,
            0.8797825575471331,
            0.9250605132980767,
            -0.776645350357569,
            -0.30268670028978417,
            -0.4388989968052943,
            -0.5286690837531848,
            0.30675992345477804,
            -0.8941563976758514,
            0.8300699618124914,
            -0.7188333805507742,
            -0.08657584310593602,
            -0.5811413535099713,
            -0.25545769527553847,
            0.4299319889389267,
            0.8034890401689266,
            0.9988541408822539,
            -0.8660556382808432,
            0.9271605487345189,
            0.8664167298540567,
            0.7288737874608755,
            -0.7177697629055043,
            0.2393919685587341,
            0.4640292667566415,
            0.49766495759045903,
            -0.5049354446467313,
            -0.8965505903612855,
            0.39603979283178475,
            0.1320022807503858,
            0.6813311555638125,
            0.10373057002138428,
            0.09555770370961547,
            0.5668932738359753,
            -0.6469850845030996,
            -0.639227195315004,
            0.8616215895255414,
            0.5972726734213305,
            0.0796175908466841,
            -0.5196964926342514,
            -0.08105335140161246,
            -0.4229055865698619,
            -0.9427954398461317,
            -0.4697771711250519,
            0.8141497160722341,
            0.3763706524400679,
            -0.6433768194529718,
            0.43332131253452105,
            -0.8998165591761939,
            -0.3901103277485654,
            -0.401315008197591,
            0.1717319372055128,
            0.7954066147489324,
            0.7510532347662795,
            -0.5061902775261716,
            0.39986692035549015,
            -0.07014720442073985,
            0.787735328498235,
            0.2867262841977332,
            0.06778809873549889,
            -0.09294197778907752,
            -0.8047936652964698,
            -0.04839691482916733,
            0.7636477550699597,
            0.8173425023611476,
            0.9077841318099305,
            -0.4378888215760131,
            0.45135759189466274,
            -0.10375000187474646,
            0.42579550331569554,
            0.6556285900584107,
            -0.6915127492516069,
            -0.5836123400258559,
            0.5906264584885712,
            -0.45735740436373207,
            0.966029675015227,
            0.6876480013418006,
            -0.5916983081699279,
            0.338060258885644,
            0.05549874940094479,
            -0.32071028146723407,
            0.9216930963535886,
            -0.1846633525287366,
            0.15903014120091769,
            -0.9506548109324773,
            0.9430310082797335,
            -0.2973368274214166,
            -0.7212280729594231,
            0.8367965485920442,
            0.8189117417504158,
            0.04211778977082211,
            -0.35796058742763565,
            0.4739953506893753,
            0.25848830872160844,
            -0.23947478237750633,
            0.30813771283759117,
            -0.67581673884211,
            -0.4780287211599652,
            0.638847228763332,
            0.4635700825668009,
            -0.3642827478904931,
            -0.9761095995137707,
            -0.7722657442729041,
            0.6795127300963165,
            -0.629045409703224,
            -0.8220346750166976,
            0.7825955284170432,
            0.38745541853634574,
            -0.5565420422820826,
            0.9596065175657886,
            -0.8541586434480833,
            -0.12044366864550371
          ],
          [
            -0.7555881697406718,
            0.8726710867892379,
            0.0856891884314468,
            -0.05601160350620938,
            -0.7277444533509327,
            -0.48336459596190556,
            0.8534468403816938,
            -0.2113772396253611,
            -0.5016952759160752,
            -0.7056853677528867,
            0.4800533350482633,
            -0.6712886537520281,
            0.3217397649216441,
            0.35189772427527116,
            0.14886526886099738,
            -0.14606436229646522,
            -0.9280385656033334,
            0.8763416408994499,
            0.4087853178002199,
            0.7039767130992771,
            0.5621225295962539,
            -0.7520325953393888,
            0.8748340101165991,
            -0.13380206779510959,
            -0.6607487241255142,
            -0.05033736805133694,
            -0.32496730762199555,
            0.29848517268397995,
            -0.33441423117537594,
            -0.17254276099627414,
            0.726909574112493,
            -0.8991039983279724,
            -0.0023610983047005745,
            -0.029077509605977114,
            0.7830305018245974,
            -0.23995804427103748,
            0.8130392448368101,
            -0.002516020134515658,
            -0.07200795391569581,
            0.5672938330010353,
            0.23907691491767324,
            0.04330458671170501,
            -0.3454414710224524,
            0.6551864852589419,
            0.15181857450269665,
            0.6938171722514496,
            0.4435761417690797,
            0.5685726172783283,
            -0.18906197253659868,
            -0.4768131736040652,
            0.044422454687295096,
            0.7615862963460559,
            0.4821496379411595,
            -0.7553457805803556,
            -0.369398321028131,
            0.16186328313896967,
            -0.305362943854678,
            0.7769191506743117,
            -0.7606689781936654,
            0.8010785068426868,
            -0.7702299230254016,
            -0.8647741044582686,
            -0.613293026655351,
            -0.7353453826113826,
            -0.5950683231626112,
            -0.5287935175487355,
            -0.4389642634081358,
            -0.0028048947876763413,
            0.9654313610358278,
            -0.37916744230927624,
            -0.22622191575455938,
            -0.41234105716926917,
            -0.9383655880412938,
            0.15754773746053413,
            -0.5595068818064406,
            0.5436331807476524,
            0.4956471404534513,
            0.8695273380254946,
            0.14654077346055694,
            -0.8015230751924514,
            0.39319932743687813,
            0.950738198223129,
            0.3299677633279961,
            -0.06115315088705586,
            0.9189085445705899,
            0.1639462957215061,
            -0.3959147461051393,
            -0.668335913533952,
            0.7111642050343887,
            0.4052645738861649,
            -0.6234209241189876,
            -0.6022788314149252,
            -0.4381450443294706,
            -0.14712542181091132,
            0.7539529002304127,
            0.9389452325176241,
            -0.3812790539436072,
            -0.3796727815802599,
            0.6058884404237797,
            -0.5019587971248928,
            -0.9005980303938421,
            -0.5134840388994291,
            -0.18134964937245335,
            0.8295511660176498,
            0.6853402987358976,
            -0.2739819401665024,
            -0.851835800188993,
            -0.8940215715230557,
            -0.7950845908113482,
            0.1525637979357957,
            -0.858408924699569,
            -0.7445781872527165,
            0.04521990161751958,
            -0.34209298410636113,
            -0.5591737975641242,
            0.6609148209468392,
            0.7671878432188743,
            0.9080788778346652,
            0.7275723261214427,
            0.9475582430561678,
            0.3370374795145181,
            0.9343875110211188,
            -0.012611750098524447,
            0.03810190051276011,
            0.9603216207566293,
            -0.35838631539556154,
            0.6708828478225889,
            -0.6071303886850938
          ],
          [
            -0.6379069020301619,
            0.41057137562547463,
            -0.26443306222509144,
            0.29336818398703796,
            0.915427000211768,
            -0.2824023049459308,
            -0.9449306243113453,
            -0.6239119315654099,
            0.40908098601527954,
            -0.6654523002213856,
            -0.9419131257749026,
            0.6947897060624199,
            -0.6179459117173794,
            0.6804535850908014,
            -0.6746138193261473,
            0.15061168263684782,
            -0.32319174204950174,
            0.6853733884520655,
            -0.5439626733463186,
            -0.403815546967266,
            -0.11086244519683168,
            0.9669990524875328,
            -0.7424169467636719,
            -0.6980564888988158,
            -0.7426799152478317,
            -0.06709431993156197,
            0.4575709376453015,
            0.9048362843950313,
            -0.4124383322308612,
            0.13925863766260374,
            0.45152851584038994,
            -0.0401245580961309,
            -0.4048775215463019,
            -0.4871119700070566,
            -0.4218315447711246,
            -0.8265648706845954,
            -0.8885763247628161,
            0.6485357240364356,
            -0.43111692561405646,
            -0.5125971422422588,
            0.16163199494071007,
            -0.6391385361835114,
            0.8238031330716363,
            0.6528021273391202,
            0.6141803723148211,
            -0.8618531815572046,
            -0.7897925936908583,
            0.4916340416097774,
            -0.17105289082589184,
            0.07124317560303484,
            -0.023464651267677203,
            0.20561059721105204,
            -0.681624846865035,
            -0.9190433300682855,
            -0.7939925015780412,
            0.3309425693417964,
            0.9565900440566302,
            0.5453224592107089,
            -0.5046068891048894,
            -0.20884216438420986,
            0.422409631293568,
            0.038889208582733814,
            -0.7357995536916604,
            0.3814918623230041,
            -0.6122127886108745,
            0.23493155712046637,
            0.271614219272991,
            -0.2113108270698237,
            -0.03628692135748222,
            0.4682037285085861,
            0.8659746060324357,
            0.7579713839867608,
            -0.0833743304821997,
            -0.513181378770226,
            -0.8700899354165745,
            0.758426345331561,
            0.6086695516259142,
            0.7950261827428411,
            0.6387146987848114,
            -0.3112245934704942,
            0.03664873726244353,
            0.5611972755519814,
            0.5819507209745179,
            0.9032741973122339,
            -0.855160779529947,
            -0.5899434700781454,
            -0.6687795927254414,
            0.4591613661497603,
            -0.6795704661105867,
            -0.09914778842047742,
            0.3258602646819608,
            -0.6632313608828594,
            0.45873516469885106,
            -0.6596141004027732,
            -0.8600067806270318,
            -0.7659335958806534,
            -0.4551801323893051,
            -0.1108201716988563,
            -0.900117892739373,
            0.8891384400770741,
            -0.7917141392482462,
            0.5866551560366168,
            0.4147466421319837,
            -0.1902483787959765,
            -0.7667914572108989,
            -0.6312150387135379,
            -0.7871537901376015,
            -0.35465617790395865,
            0.41249350841938937,
            0.07002913793276407,
            -0.7519314179779221,
            -0.3080593416375036,
            -0.30476919232400723,
            -0.11054341760194646,
            0.3415042120366564,
            -0.3147933504769154,
            0.9658333169513004,
            0.2616431492971204,
            0.6612559952538494,
            -0.6574275138100398,
            -0.9461754994581145,
            -0.3935995415666135,
            -0.6933624069329387,
            0.519347142261064,
            -0.33120862768638926,
            0.6473271536478495,
            -0.7975038435739616,
            -0.6019345392620629
          ],
          [
            0.8731863327943725,
            0.1153319032649628,
            0.6549689041411885,
            -0.7427748473862907,
            0.7523817616952728,
            0.4107919651645818,
            0.38674249663349763,
            -0.3872860573483386,
            0.6895877047121889,
            0.8593156553807497,
            -0.7031788458896476,
            0.24777152667738092,
            -0.05811453214749504,
            -0.3831087262214129,
            -0.3797111504117605,
            -0.6371991506447636,
            -0.1761701905138799,
            0.45364115379932285,
            -0.3038151650244191,
            -0.5424194695109871,
            -0.8428180220275058,
            -0.9749330129285416,
            -0.32707035591851896,
            -0.8021363761747342,
            -0.271489108844385,
            0.9707603178869763,
            -0.34576426487332984,
            -0.6685006340368264,
            -0.3667140280156507,
            0.1868007566197037,
            0.13324256375423457,
            0.9721681402821095,
            -0.7767490831147639,
            0.9011813020030232,
            0.8507919910496828,
            -0.25326878148581133,
            0.17286074009812294,
            0.8171154806299228,
            -0.6505659726063803,
            0.356441565980335,
            0.2660034045325008,
            0.7606782053462432,
            -0.43369993455558237,
            0.31866713111524,
            -0.5376931578739345,
            -0.5157944422898727,
            0.6422077894004327,
            0.5518401345946758,
            -0.6211483119952885,
            0.3198585611327425,
            0.5650747761695255,
            0.8180231398476631,
            -0.020124571390489357,
            -0.5819470315846268,
            -0.12204271520288353,
            0.6462194904875579,
            0.8805075551207489,
            -0.2810508376491745,
            -0.6966624505515846,
            0.7931138995753177,
            0.9500384538805282,
            -0.5589343680963776,
            0.5425860105181337,
            0.8835050991721493,
            0.9491309145825845,
            -0.3285341699420445,
            0.023241167949392717,
            -0.5179012699828011,
            0.9223875516450859,
            -0.15818881251513758,
            0.34575754504943157,
            0.08395990226802177,
            -0.5578506601616358,
            0.1390257638228498,
            0.855935315502338,
            0.36605606257924794,
            -0.9537391383445768,
            0.13619348703948206,
            0.24413772374390857,
            -0.48481131382356873,
            -0.850299321142056,
            0.1713513471213523,
            0.3825936404902206,
            -0.8978065657715762,
            0.9433353197174928,
            -0.9043838529051271,
            0.41497979799159523,
            -0.34446146002585576,
            -0.39601477320906414,
            0.8549995341461307,
            0.6150795542521128,
            0.06294849665509729,
            0.31123909964484203,
            -0.1151625354577129,
            0.17898056043299676,
            -0.20180201161233555,
            0.017045725139558838,
            -0.03217441404656442,
            -0.8605447268971451,
            0.03640303004925212,
            0.37516433941159416,
            0.5247408580229288,
            0.4741590612348106,
            -0.7910353707383305,
            -0.3834300121851963,
            0.18559980737746207,
            -0.29577548431149414,
            -0.4579736421418852,
            -0.19452691562069138,
            -0.1900607816347119,
            -0.6639586883187069,
            0.4529219866491197,
            -0.9534562276637426,
            0.5928358887735863,
            -0.1404365015099152,
            -0.024823175903557607,
            -0.06812509639479833,
            0.798054216350906,
            -0.6210807784514226,
            0.10320302452130005,
            0.20449300750204288,
            -0.8684974213134938,
            -0.762270692286027,
            -0.011955005567860036,
            -0.3298618448864411,
            0.6519641242041209,
            0.5557606082500484,
            0.15361279594078317
          ]
        ]
      ],
      "biases": [
        [
          [
            -0.022200089915674386,
            -0.0013816929093617026,
            0.01505260909489886,
            0.02033695655703166,
            0.008705702049068965,
            -0.0005673835544617699,
            0.0050121177245463,
            -0.023722844637764303,
            -0.02142690682154322,
            0.016653511702974473,
            -0.006244825258084291,
            -0.019348361850645795,
            0.016176654554524963,
            0.02024973359167438,
            -0.0071894496668282945,
            -0.019904193632504265,
            -0.02140202299375835,
            -0.010930949260509044,
            0.0055100504680952985,
            -0.01614411716923039,
            0.014506707819103818,
            -0.023118102670161827,
            0.004459383249703471,
            -0.016756996663989016,
            -0.021983760733921363,
            -0.020643199699825313,
            -0.02342435607842564,
            -0.022368701598194603,
            0.0035252778781391415,
            0.012049838776897599,
            0.017118096985555865,
            0.02494641993935461,
            0.01904796836212716,
            -0.002585624294448046,
            -0.0005254723647739036,
            -0.024518554151399856,
            -0.0012374626015339077,
            0.018128872369572512,
            0.02392661976339843,
            -0.015183204300235372,
            -0.02291191285826628,
            -0.012409946844629793,
            -0.022981188111536686,
            -0.01303602778266984,
            -0.012789205052925424,
            0.011772738051825807,
            0.0065171341011907215,
            0.016079290245977422,
            0.02108964626175168,
            -0.01371256492825654,
            0.023583414519677267,
            0.019114903031765735,
            -0.012295944145682768,
            -0.006072284200678542,
            -0.0042903227725120735,
            0.018403688015171026,
            0.018654257344825148,
            -0.004687674920764028,
            0.021113636041067797,
            -0.004585203307101303,
            0.00778269095884893,
            -0.02472172282962938,
            -0.0209020753090339,
            -0.012602368792088708,
            0.020160942456965085,
            -0.016733301754137706,
            0.025005167935620475,
            -0.018965275304784066,
            -0.021210738570567197,
            -0.016414626886378035,
            0.025586063000221988,
            0.02376516754609863,
            -0.017486899140672408,
            -0.0054437718637395625,
            -0.024178789949773297,
            -0.008340831543376897,
            0.01034616154130529,
            0.012031590849215935,
            0.0005776639434397009,
            0.003444596498527427,
            -0.01169811192007653,
            -0.023980611890329007,
            0.011334412288803566,
            -0.019034840109204282,
            0.00656543357499841,
            -0.015647378049075816,
            0.01594618723594147,
            -0.01497448024551754,
            0.01189354850787759,
            0.0069581445467129166,
            -0.021964734231070093,
            -0.021700576135973197,
            -0.016639867036108456,
            -0.011365793511238998,
            -0.004275715283429358,
            0.009040261415754583,
            -0.0200691007531963,
            0.021267938646832397,
            0.01190652611720088,
            0.021150586878875544,
            -0.02169018820520594,
            -0.023365495830370314,
            -0.004237013622939947,
            -0.007719139830641693,
            0.009630647183810074,
            -0.017524733922773875,
            0.022558665091721514,
            0.011580709258421515,
            0.02484998508177531,
            -0.018786370215303994,
            -0.022645307479027505,
            0.0026506486630507014,
            -0.019805692296373977,
            -0.019390593353484923,
            -0.006138695148911499,
            -0.015481087658488579,
            -0.012977094418878886,
            -0.016224334213021496,
            -0.004142261084072635,
            0.004025056695011617,
            -0.01710733780717963,
            -0.010638075340120633,
            -0.023963742508180823,
            0.01233286162504023,
            0.010039893436433278,
            -0.024349154226996014,
            -0.01826128182068877,
            -0.023048886484817004
          ]
        ]
      ]
    },
    {
      "type": "ReLU"
    },
    {
      "type": "Linear",
      "in_features": 128,
      "out_features": 64,
      "weights": [
        [
          [
            0.8811922358468057,
            0.13762863067482534,
            -0.8024878459062683,
            -0.9791007385277709,
            0.4050128973404347,
            0.13467885203683033,
            0.9273017027564213,
            0.4270018733542271,
            0.6960766909054943,
            -0.8320332693774735,
            -0.3389169914039758,
            -0.5638939841263367,
            -0.1563545671088181,
            -0.08965390794366679,
            0.6363747825314081,
            -0.6708603846471257,
            0.18227739425489256,
            0.25349242956721507,
            0.2737109887849415,
            0.027024684928135204,
            0.90207353345642,
            0.8396928582682087,
            -0.2162503992731204,
            0.7070828233853369,
            -0.4607074249527001,
            -0.19435209386566324,
            0.8387772379160572,
            0.45121465105627584,
            -0.9826294832952233,
            -0.6852489139838946,
            -0.68480906988225,
            0.9027820023706479,
            -0.8437579131534784,
            -0.14984720759934314,
            0.4619801942559201,
            0.05723449281408303,
            -0.6714546930357805,
            -0.8990294931704708,
            0.3820250630949995,
            0.016129369099206165,
            0.6258652812009683,
            0.7061203708179212,
            -0.21771881701558393,
            0.6070554815504344,
            -0.5581905543854339,
            0.11937387948425492,
            0.4936260035181396,
            -0.6174166581443671,
            0.7001733982922071,
            0.9411926646495831,
            -0.44181637570884585,
            -0.785902760610739,
            0.58537496259004,
            -0.5488653331453971,
            0.024572737041132716,
            0.8520283190401368,
            -0.5993443660010908,
            0.5682756595727021,
            0.384039571488886,
            -0.09652495013398152,
            0.9440107628959525,
            -0.8838342369170405,
            -0.5940594647460328,
            0.9532139513126191
          ],
          [
            -0.15039323660378842,
            0.42697763493755364,
            -0.1086869017133219,
            0.8751719280021962,
            0.627622944581558,
            -0.620053046975264,
            0.12203113122499532,
            0.8948278735219596,
            -0.3657136902594995,
            0.3062755775849677,
            -0.01806316390594771,
            0.46598445670175004,
            -0.30244736116449705,
            0.3179464477277327,
            -0.019843668364253768,
            -0.0824869111048397,
            -0.7502753239607299,
            0.2473237896520448,
            1.0013021093952734,
            -0.41481033301725523,
            0.07623558004917652,
            0.04233069109547178,
            -0.6689269037974013,
            0.9159262213947157,
            -0.5467836271112569,
            0.9194398336125377,
            0.04182964559059874,
            0.6844980481136896,
            -0.7012496576205602,
            -0.4855210161423017,
            -0.32769374604638696,
            -0.6112173393242882,
            -0.18773695026547452,
            -0.7536403019195952,
            1.007336553556567,
            0.6389083597035933,
            -0.3195632951928121,
            0.7790059119113812,
            0.16501727040843184,
            0.0902688966716729,
            -0.24294692304886384,
            0.8145794129751215,
            0.3338583451342387,
            -0.946415436137138,
            -0.39044885919131234,
            -0.1961532434362019,
            0.2673040783734493,
            0.5891014028858327,
            0.6507689346649365,
            -0.5614393066160361,
            -0.20691125839668925,
            -0.6391167383726138,
            -0.4240030307746419,
            -0.21382119611213443,
            -0.9279241963943955,
            -0.30137713228034696,
            -0.11195546727830433,
            -0.8961641410983727,
            -0.36638613985856305,
            0.10885321297417859,
            0.05806433816026258,
            -0.860516333140416,
            -0.4499088663680895,
            -0.9667915228555222
          ],
          [
            -0.3083934434386779,
            -0.1480182547690101,
            -0.15428955382724738,
            0.2087959428401556,
            -0.5738284644446263,
            -0.7026288058494294,
            -0.49974993719050964,
            0.17470178299747183,
            0.869651498512932,
            -0.44759392855388797,
            -0.28539412299908884,
            0.7604113846920468,
            -0.3689895888733001,
            -0.6745147420522124,
            -0.23278934176304492,
            0.30867417697067295,
            0.9810641966323493,
            -0.7296146122062198,
            0.48721328555439863,
            0.526360078072658,
            0.834905176395254,
            -0.21233654551247433,
            0.8648645095865197,
            -0.7336803622297133,
            0.16476779225560403,
            0.7686915325649295,
            -0.6328680169383996,
            -0.8748619261529293,
            -0.3748224138510649,
            0.2877818882170766,
            -0.9370894163522384,
            -0.26644798577625456,
            -0.04712800025031735,
            0.4520095343899418,
            -0.3952006391713765,
            -0.5084058766927776,
            -0.8112323047951966,
            -0.3202599313196695,
            0.42675097832388476,
            0.5810926938615396,
            0.9812512797275865,
            -0.974783321566893,
            0.040547111139529295,
            0.5768897833683123,
            -0.4407034847743849,
            0.6103926821184841,
            -0.09010003246036068,
            -0.026603127723764303,
            0.8886812723631465,
            -0.26044919709593484,
            0.34360752953650703,
            -0.2559675259616395,
            -0.828178894365137,
            -0.18007958437555316,
            -0.9008034165079711,
            -0.24147044617138264,
            -0.04088267943522314,
            0.8447657968416598,
            0.7516519482817032,
            -0.7102134265950184,
            0.7077033042246329,
            0.8110683843437845,
            0.5752051114227,
            -0.724763643187785
          ],
          [
            0.4622750822445547,
            0.22255740772053237,
            -0.5205199776622099,
            0.5659257376547236,
            0.792532763907457,
            0.7019694600751408,
            -0.3301301393015152,
            -0.29740797083194515,
            0.4449802929882928,
            -0.0533444660109789,
            0.35802932237358803,
            0.802845599587526,
            0.036168316751088926,
            -0.3105007514368021,
            0.768699360432477,
            0.8371758172075003,
            -0.6222659963882631,
            0.5703290227775802,
            -0.8690370947946348,
            0.6461875115840926,
            -0.5459081876629106,
            -0.8870020252009906,
            -0.49436061536014364,
            0.6846985351957212,
            0.21536922696913524,
            -0.7793891962481577,
            -0.5081317349506341,
            -0.7104482333185996,
            0.37680855005063746,
            -0.8186854987488871,
            0.98644940295609,
            0.452392671497474,
            -0.6403227536680153,
            0.27301592566376015,
            -0.8393160377298741,
            0.6416464742996251,
            -0.39166984741150207,
            0.7987985589912898,
            -0.16880941753487244,
            0.8558181531505092,
            -0.03488112506310939,
            -0.9115872765171769,
            -0.8299092990793036,
            -0.08243141771391206,
            -0.572011089059689,
            -0.5468136222968152,
            0.6844118542584305,
            0.2652595127812015,
            -0.35956730571656814,
            -0.5859144736905213,
            -0.38309457246455997,
            0.7383752018526808,
            0.2803474681591749,
            0.24271517667189516,
            -0.5953489926693277,
            0.7568574980568035,
            0.1314541719039093,
            0.27566569654361506,
            -0.5211531508274728,
            0.36548903029657726,
            0.35538702303019487,
            -0.4338143901178608,
            -0.03492809031430179,
            0.3353588302239434
          ],
          [
            -0.576124890967279,
            0.825518351372647,
            -0.661173967446405,
            -0.32162411506890903,
            -0.9726522544478686,
            0.9125631859330685,
            0.3660189320243549,
            0.6213996881135334,
            -0.8585723504314245,
            0.8533186174734109,
            0.7661748857657993,
            0.42054949416107595,
            -0.36599781875248344,
            -0.8808483006741148,
            0.27769876982366887,
            -0.5967716094646716,
            0.6519116467855224,
            -0.08546850229590405,
            -0.09783900856924284,
            0.6429415257858436,
            -0.7213414248070652,
            -1.009074380956333,
            -0.701509104675655,
            -0.3608303407361019,
            0.17778806893545437,
            0.9519271067893714,
            0.956521489639559,
            -0.10413019742367537,
            -0.4743966012489552,
            0.2445829291315089,
            0.18319561332360568,
            -0.9799008116280248,
            -0.1998075082443391,
            0.8009762223613325,
            -0.7427727294721993,
            0.21177966028516454,
            0.6291264890426335,
            -0.2907677562597175,
            -0.5454100115219421,
            -0.193059888719417,
            -0.12388864627710679,
            -0.04495063496028375,
            -0.6456546839216227,
            0.3272335407352327,
            0.35882275154535587,
            0.17543732219656674,
            -0.5241368663840292,
            0.745436621488529,
            0.8424069837408178,
            0.4565685656158044,
            0.7381455978986616,
            0.3619623820048121,
            -0.7668906466362778,
            -0.04838006860072168,
            -0.6067612189938896,
            0.07886822480976431,
            -0.567013353342134,
            1.006085851185038,
            -0.8807599836955136,
            0.33631817195968394,
            -0.5593977641124448,
            -0.8184239442964888,
            0.08148035470263504,
            -0.9090215851734806
          ],
          [
            0.023403944453870396,
            0.321794693253322,
            -0.5294051402852495,
            -0.36015971437813865,
            -0.30197823882213365,
            -0.5778558248875016,
            -0.7252845534604825,
            -0.28037510757452627,
            -0.44014208131797794,
            -0.4063496620504281,
            0.6626827041166589,
            0.6499670224473263,
            -0.9833144317889692,
            -0.9165216258656249,
            -0.5882508594692862,
            0.43415584835654,
            -0.40763076975448737,
            0.27515003790781,
            0.08466079622695728,
            -0.3771129067147734,
            0.7879731132216262,
            0.3183368284756608,
            -0.6787330448068282,
            -0.5518799583984585,
            0.8288880198202526,
            0.5799591373296419,
            -0.662582122921029,
            -0.07302667647550083,
            -0.9218057234985383,
            -0.6141571501194817,
            0.6878596715370775,
            0.3278352178954999,
            -0.6458064172945136,
            0.0014691007120359052,
            -0.4645896243754421,
            0.8805975238868438,
            0.27055374355841566,
            0.13278143914763396,
            0.39585055832884847,
            0.7498360232916543,
            -0.7799118362826372,
            -0.48071833359295435,
            0.6486154497261838,
            0.43957613365960574,
            0.3471726171286639,
            -0.3649587586239342,
            0.632197766083824,
            0.3981224919019237,
            -0.9456829954741426,
            0.2516633785150079,
            -0.1568119997481692,
            -0.12051120526197955,
            0.6243061029743497,
            -0.053454989577602516,
            -0.9226430741895286,
            0.41986313558984306,
            -0.9868033842800356,
            -0.7403469516825885,
            0.7177452223461585,
            0.9124097395397485,
            0.17425595138765754,
            -0.9529575342380341,
            0.7482463891753457,
            0.8295044558104276
          ],
          [
            -0.9098500273198079,
            -0.7405120776443725,
            -0.37292829115620135,
            -0.08442291320182625,
            0.98619168337002,
            0.12743793267943368,
            0.2877291809852622,
            0.2565052022009814,
            0.08975926715028819,
            -0.2695383753178191,
            0.7562580773597473,
            -0.7078599265625013,
            0.23018047782063233,
            0.2688750615582323,
            0.6238996971220576,
            0.347525346459286,
            0.11802970294500291,
            0.6351632870870154,
            -0.9632391181560633,
            0.17164993375810406,
            0.303275489985247,
            -0.3865440113050316,
            0.5873653913783008,
            -0.5480927318202071,
            -0.30192536233116307,
            -0.666535180211714,
            0.32344469929015424,
            -0.8738663440423521,
            -0.21573612941530132,
            -0.0657235873795663,
            0.7389303804505666,
            0.1256784029433063,
            -0.44991285404467796,
            0.25456827854958197,
            0.04635742709743209,
            -0.5748606652272568,
            -0.027035923390754717,
            0.6861795268215123,
            -0.4550713140815914,
            -0.2038086873892102,
            -0.253289519263879,
            0.34347891382745294,
            0.5492234552483648,
            0.9448204438749348,
            0.930745524720148,
            -0.710195213824139,
            0.9493146377932061,
            0.10731898655354183,
            -0.6808113812818085,
            -0.48365707522158924,
            0.3537395635913784,
            -0.2348493655125584,
            -0.09175178656250654,
            -0.4799837466747472,
            -0.862020943450926,
            0.7665429436613829,
            -0.49988202549802124,
            0.33502787271544954,
            -0.632694994896283,
            -0.4642488412717272,
            0.9008435733470356,
            -0.3056075665707255,
            0.8427455866105136,
            0.45125825452806456
          ],
          [
            0.8471838976875241,
            -0.9723875128970518,
            -0.3576782799592879,
            0.5751841510488697,
            -0.6254996009935224,
            0.5986609513543661,
            0.6047641561056553,
            -0.6620408421170111,
            0.13267852341149455,
            0.17547366229604625,
            -0.5343985036569635,
            0.19225824246928055,
            0.3555794844462513,
            0.9892862302738873,
            -0.47892999703301264,
            -0.7385069288694215,
            0.15745556006946712,
            -0.23073672531579875,
            0.9075408085491242,
            -0.5470841772004582,
            -0.1702003086300973,
            0.4247444592522766,
            -0.9801110371901511,
            -0.2894844866349798,
            0.2924605682072591,
            0.7742593443573192,
            -0.5883791714936553,
            -0.9830191973485336,
            0.4487432121274355,
            0.2752461955796663,
            0.10550620897842089,
            0.6163718039423653,
            -0.039852818230759146,
            -0.9470814779837714,
            0.8441593567641588,
            0.868065847242962,
            0.049867829823835495,
            0.8294589318629437,
            -0.27431762052589864,
            -0.7977932713759989,
            0.5377881499713185,
            0.5486544995569237,
            0.5066134125243127,
            0.43270047162889724,
            -0.11708223749494226,
            0.9831042070164143,
            -0.5133748869339757,
            -0.15483293042702728,
            -0.09609965809527017,
            0.04968531317146791,
            0.711937533463603,
            -0.6811686979791584,
            0.704901655238165,
            0.30811510965241107,
            -0.983594079810977,
            0.5730119335225582,
            0.8432209226881993,
            0.6601634285388309,
            -0.5719320428209652,
            -0.1838935081730511,
            -0.9017991257342399,
            0.5857292979010613,
            -0.5472208731871687,
            0.8887421216949797
          ],
          [
            0.1571756447686827,
            -0.47035268832173793,
            0.20233545241460785,
            0.8059369892032354,
            0.5499642554526193,
            0.6258533216446077,
            -0.39241023811485276,
            0.6938587024699432,
            0.5334190428983636,
            0.7378300224209176,
            -0.39284152406774886,
            -0.022410371728667187,
            0.829968350148078,
            0.004320532939663169,
            -0.8933958160857258,
            0.3266443953231984,
            -0.3307090334496484,
            0.9540834843253454,
            0.6400890587996776,
            0.3070600185227963,
            0.11413158539445264,
            -0.140329402775454,
            0.5278823722268853,
            0.22899107882340172,
            -0.6875638641728344,
            -0.5648253310464255,
            0.6171949403025391,
            0.708392100718351,
            0.8406744280412327,
            -0.800868232458934,
            -0.9713591062618153,
            0.17935301582489477,
            0.0789568071443682,
            -0.30121480420951163,
            0.3892048908494379,
            -0.21070643043895307,
            -0.5228601545359993,
            0.6272192603335768,
            0.0632967652506408,
            -0.28310853048827467,
            0.7718940402486206,
            0.0529250369213404,
            0.3559172312130334,
            0.9901444502627067,
            -0.9504080574497951,
            0.7868238535490596,
            0.7121044673809978,
            0.36311606069213287,
            0.21100453518856038,
            -0.8621398929723766,
            0.888613025380765,
            -0.7997518479032905,
            0.29976492949885336,
            0.033797364200489934,
            0.35237758795881186,
            0.06897310236209275,
            -0.3122481463391906,
            -0.46635532540170255,
            -0.9520480569614399,
            0.6821233379358973,
            -0.8121789015526419,
            -0.4687280365894324,
            0.9771584583795829,
            0.5008134568343607
          ],
          [
            -0.30438427677729085,
            -0.9871654239595282,
            -0.4706703526064618,
            0.132278077923754,
            -0.06763532115243645,
            0.721934733897111,
            0.15072454398152743,
            0.044266564941786234,
            -0.7195880143394332,
            0.14689168693855678,
            -0.4735733463634491,
            -0.039258086714209384,
            -0.8575423771260927,
            -0.1941908439729253,
            0.6494376260871116,
            0.11679196093434419,
            0.6810351037670546,
            0.8651924175166157,
            -0.6852507972590599,
            0.4045657234036244,
            -0.5306610024396541,
            0.04396296393256351,
            0.5170573276276669,
            0.470075001789746,
            -0.1845874401829324,
            -0.18287495190927575,
            0.5463539180360766,
            -0.6764195963941139,
            0.30227612992270037,
            0.6222017604581881,
            0.2672536235727889,
            -0.7720908802652088,
            -0.4143208517735081,
            -0.18013276075580556,
            0.33828071234854584,
            -0.5530602319290735,
            0.7432059446804843,
            0.7480008228084851,
            -0.2606784043487152,
            -0.9823371416296125,
            -0.39975556921608535,
            -0.4883874457742708,
            -0.9844391797781016,
            0.2068479111194936,
            0.8628239654301829,
            0.7058216792832174,
            -0.3174881654517389,
            -0.08709131255966153,
            -0.3896606624885796,
            0.5930226394643183,
            -0.9844208602009531,
            -0.5809125107164047,
            0.7501243260687992,
            -0.9272818056790996,
            -0.1651279194161621,
            0.9495440647479818,
            -0.4006504388594857,
            -0.907791172702058,
            -1.0104471974840425,
            0.6606527351532951,
            0.7407834251238327,
            0.6537770800019427,
            -0.41250781770405187,
            0.775041183774708
          ],
          [
            -0.7842845853262568,
            0.5484857144179002,
            -0.6552109311587055,
            0.2015674648932572,
            -0.03534694510770652,
            0.02818155188081867,
            1.0044400844018888,
            0.718580405030397,
            0.160052979978338,
            -0.2045222012956195,
            0.8565711757664582,
            -0.8310555413038725,
            0.02810752841924982,
            -0.29084895734769817,
            -0.5854426719562622,
            0.47268297621316835,
            0.7981518173765935,
            -0.3494983448685968,
            -0.5515461610051768,
            -0.7758222257413548,
            0.3723306106784211,
            0.01828936242327862,
            -0.018758314842043544,
            0.7122176537833158,
            -0.20160860174756695,
            -0.5197146149332772,
            0.6352452481654737,
            0.7196827038388811,
            -0.6061097474245798,
            0.6673501286328615,
            0.2562942271864665,
            -0.5541414949859372,
            -0.24174667670338879,
            -0.9823073680161161,
            0.5410877962955941,
            0.6610897428478797,
            0.5345454836330944,
            -0.5916954231655113,
            -0.48629914624997594,
            -0.7566479296452342,
            0.7426031434309809,
            0.7124997488582925,
            0.7967171414829859,
            -0.9635746864073471,
            0.45294681272899484,
            0.7560724629757113,
            0.8386536037752909,
            0.9782340532484699,
            -0.5956996274437923,
            -0.44644567121046663,
            0.8436843292656007,
            -0.8771406556567197,
            0.4878632303783634,
            0.33345028048648584,
            0.6070320890116152,
            0.0079087485235126,
            -0.27840362284167264,
            0.8199949065221224,
            0.00838833700394255,
            0.8726602846344222,
            -0.528626121062402,
            -0.3949140279282149,
            -0.31855875134212874,
            -0.24323038481154985
          ],
          [
            0.36774153072159965,
            -0.664763411217658,
            -0.831594402648893,
            -0.9577119200134571,
            -0.45023676461210266,
            -0.9217851997488398,
            0.5824545147270888,
            -0.07787934712149912,
            0.5499098271021156,
            0.8632115412396675,
            0.3726327503701164,
            0.0026749832367567953,
            0.30577631711269315,
            0.19183199618474878,
            -0.7029083692245711,
            0.4789712546072238,
            0.8768140082734689,
            -0.3798739480755411,
            -0.6235885362409055,
            0.1936372007630415,
            -0.6093253007685432,
            -0.6041729857862861,
            -0.7141743862879459,
            -0.510732836687072,
            -0.573144196891677,
            0.7748960779368465,
            -0.749323317262479,
            0.5424907246754256,
            0.3155238974850597,
            0.9214373206486168,
            -0.9597403899013239,
            0.15983822066041425,
            0.1247027534514779,
            -0.9727902058380585,
            -0.9827598080648218,
            -0.6922340453689483,
            -0.26125203621214244,
            0.3706068533828506,
            -0.4122828994969346,
            0.8738451031408468,
            0.2695366558126283,
            -0.9973943966744059,
            0.5363111825597471,
            0.06631084629997282,
            -0.6312645465624909,
            -0.78936265018018,
            -0.439123414676805,
            0.12177202605223812,
            0.8804598463130118,
            -0.5816541365514383,
            0.5545855465445355,
            0.6486767541532876,
            -0.3258645303080061,
            -0.08385646915677399,
            -0.8917814659884474,
            0.9026440938967116,
            -0.9931946243403582,
            0.923344641900525,
            0.6788346672771772,
            -0.861094222270087,
            -0.2775181248209118,
            -0.056399689023801915,
            -0.24156100685681076,
            0.42426216686963436
          ],
          [
            -0.7061995418251602,
            0.5411781714319275,
            0.5668666219177309,
            0.9404357011475855,
            -0.040059694079550186,
            0.12591758218694535,
            -0.08963378019407654,
            0.9739562385262973,
            0.6029374042970147,
            -0.09935448681308738,
            0.22171425769383554,
            0.00009644901665658472,
            -0.615753222006557,
            0.04566118146899977,
            -0.4575325928829867,
            -0.654719823845691,
            -0.34869662632535897,
            -0.5178698555391171,
            0.26428860773946367,
            0.3589854602909357,
            -0.3694208383543013,
            0.6315753588617875,
            -0.6338663979340294,
            0.5933508478694552,
            0.512306821302104,
            0.30018509310338964,
            -1.007759393505242,
            -0.6818044273080016,
            -0.22574240580288052,
            0.4159065917790263,
            0.2924249906826919,
            0.528496071242587,
            -0.4562629798490986,
            0.17591090058058212,
            0.5469725812640559,
            0.3906201503948321,
            0.007997916315323206,
            0.7810114910786795,
            0.588063442633133,
            0.005283488652316705,
            -0.8390582348225908,
            0.7181092057915319,
            -0.7622808828287501,
            -0.3395684202547806,
            -0.6009430825791967,
            0.578761802326143,
            -0.9884120868332218,
            -0.5943656092059014,
            -0.1910534653093598,
            0.2159547113358041,
            -0.6476861331521528,
            0.8668360915617953,
            -0.04774637359064672,
            0.012374752975242709,
            0.3324712910137896,
            -0.6985436840318007,
            -0.019801701509988834,
            -0.7097225392682605,
            0.3653538847772627,
            -0.26984935484155836,
            -0.8417038193145507,
            -0.9757272630765926,
            0.26399037502563977,
            -0.9205001375309878
          ],
          [
            -0.3766364992428582,
            0.3904102261205774,
            0.8005343460259823,
            -0.48179958042753357,
            -0.9796933380600623,
            -0.8256538275140843,
            -0.0783675869532884,
            -0.661693437368033,
            0.15950540973797728,
            -0.12165738922299862,
            0.44781687985532687,
            -0.4744288931235326,
            -0.8743049969789687,
            0.9130240137058595,
            0.8060163938312134,
            -0.3767648284377286,
            0.9317183913776762,
            0.29260727015382426,
            0.7471486306193701,
            0.7805078631407113,
            -0.6108946097959836,
            0.2948112475013177,
            0.47440309153774674,
            -0.7180068374683541,
            -0.7079689269058919,
            -0.24306015698959846,
            -0.5375982721039592,
            0.8961639963719237,
            0.5031550282443147,
            0.12977678217744595,
            -0.8340026675594236,
            -0.9833778711649633,
            -0.07448980439966459,
            -0.9521033114397638,
            -0.42190948055399746,
            -0.705795162969212,
            0.32139111945577326,
            0.8488287616449682,
            -0.33201087858066297,
            0.682327911497663,
            0.30549393710324246,
            -0.3852567882772898,
            -0.7625567295964601,
            -0.814776236119268,
            -0.5475001983383885,
            -0.44371666148494615,
            -1.0012609214214474,
            -0.05588373534831271,
            0.1632701503111802,
            0.4687337690136232,
            -0.5471834427271994,
            0.6166996628346303,
            -0.5185519790450347,
            -0.9514810826882829,
            -0.593450898908809,
            0.9321435224362101,
            -0.9854785362843314,
            -0.4223747813571555,
            0.42937910815186414,
            -0.448920367124608,
            -0.5782239084524565,
            0.051642570172340224,
            0.745840865470495,
            0.4653476633107013
          ],
          [
            -0.31693452238488046,
            -0.10253757252886832,
            -0.16142552740053748,
            0.6726749752571296,
            0.11616674926558224,
            -0.7765838510800523,
            -0.09053484315258449,
            0.7319215062197174,
            -0.060015766440814126,
            -0.04630512278110854,
            0.40369528097853424,
            0.35483577343247563,
            -0.17860827604186982,
            -0.7436556538361119,
            0.39992982260357657,
            -0.5709069808050546,
            0.2570419040892962,
            0.960029843106153,
            -0.10904528429684295,
            -0.4085759655387588,
            -0.8350863164540221,
            0.3851180206363033,
            -0.8727919458612388,
            -0.56255195264266,
            0.7166034354847052,
            0.28971023827081316,
            -0.8668351277752832,
            -0.6733066248625736,
            -0.6411901726593705,
            -0.8782624717105154,
            -0.1639839918297952,
            0.38760057860617464,
            -0.22827585442302753,
            -0.7193736187965123,
            0.3341766638366295,
            0.1378978543088638,
            -0.3819553133288218,
            0.6644656035027301,
            0.728727333050293,
            0.5850478991670094,
            -0.7404782078304738,
            -0.501893525705826,
            -0.8948399768715426,
            0.6610433727313698,
            0.8062901196235003,
            -0.22075090553394947,
            0.07987631023658988,
            0.8455661242781816,
            0.7689772110453529,
            0.8601542450658102,
            -0.3267802710681931,
            0.3306182306022306,
            0.01699623560197517,
            0.8664011252089623,
            -0.10060984912899971,
            -0.639942611205531,
            0.8351973502635732,
            -0.8999172375014549,
            -0.36707806595536335,
            0.8777973456136862,
            -0.5677083760846078,
            0.1432530738642455,
            0.1283019177871371,
            -0.8195358964583581
          ],
          [
            0.0018703471388308544,
            -0.05675757309894982,
            -0.5605750218171749,
            0.12048921926793872,
            0.2504836878218946,
            -0.09246767165684094,
            0.08550740692574342,
            0.8329094360520053,
            0.5203571232826232,
            -0.6070341067280007,
            0.257750360843877,
            -0.6099687262700595,
            -0.518956897231571,
            -0.8848010371056833,
            0.995198454287013,
            -0.25693255173209517,
            -0.9807503962945323,
            -0.8123786954911463,
            0.2140799367934194,
            0.7831386021449472,
            0.018939549510016005,
            -0.4058740363116997,
            0.4910418795586675,
            0.5917782738142849,
            0.1406446019566046,
            0.27664496954892626,
            0.7448707881054493,
            -0.43392783392824313,
            0.032422646775885196,
            0.08815072486937593,
            0.04426980848096207,
            -0.660934046004389,
            0.7265661414643021,
            -0.47028983888454257,
            0.5661416709551848,
            -0.6646893594196261,
            -0.6815052358934731,
            0.6712354546565592,
            0.6461731100548862,
            0.3473202237539941,
            0.2240826954260141,
            -0.8102334465669758,
            -0.9275155779225487,
            0.47314995623185196,
            -0.19264228862482863,
            -0.08425580113769283,
            0.2447262122200542,
            0.19676721763417837,
            -0.198455747739301,
            0.1277744200605158,
            0.16550975084928202,
            0.3087992598590847,
            -0.06863298555580723,
            -0.6550805371605469,
            0.8255659532610318,
            0.29405711042484334,
            -0.7600443838677682,
            -0.37815812870750154,
            -0.8407826795519955,
            -0.6588944188575717,
            0.9784759886258972,
            -0.9026332088925673,
            0.3536648874292604,
            0.10511452963686305
          ],
          [
            -0.6245073537866218,
            -0.06550233960965277,
            -0.1370471106671964,
            -0.4507951826074984,
            0.35303908148770907,
            0.2492117128446314,
            0.694090677526456,
            -0.10408074675454246,
            0.23350562566085245,
            0.5863399289872165,
            0.8543978373536036,
            0.6296874991537267,
            -0.6054746385106297,
            -0.2948979290669124,
            -0.9471320790566651,
            0.08044883945184722,
            0.9323140515991242,
            0.6248939850881852,
            -0.7088633058192865,
            -0.5552520666449524,
            -0.5473001518992268,
            0.08798589169644926,
            -0.10576988776211486,
            0.37935217925660997,
            0.2912011895555192,
            0.9694606749903792,
            0.41434095712733926,
            0.13400283463021703,
            0.6946716933063213,
            -0.7695854046176257,
            -0.46791720986204477,
            -0.6667797026359112,
            -0.6253114116534072,
            0.3135376937223157,
            -0.9177698983992634,
            0.6129716296499415,
            -0.07002630572510735,
            -0.7169098799399642,
            0.9774154300629389,
            0.510931607012229,
            -0.2779716382679808,
            0.9849425105466159,
            -0.5164868507604623,
            0.36654871286839597,
            -0.67534902579347,
            0.29741277585178016,
            0.6450253898906009,
            -0.5067622185472783,
            -0.6992503535618607,
            -0.5631210301688679,
            0.6331371442287324,
            -0.6389079138642976,
            -0.1638354981412316,
            0.03956414664486818,
            -0.48849860210450013,
            -0.11205287421260823,
            -0.20923793601060836,
            -0.39884680790301735,
            0.7398355052942283,
            0.6864623292983311,
            0.9164100170985358,
            0.5161266089363931,
            0.24812211978465537,
            -0.04073289360486378
          ],
          [
            -0.519209563712866,
            -0.35846677880284766,
            0.09419224058961677,
            0.4014238587853856,
            0.7079658298552743,
            0.6971173992164479,
            0.21952006565749402,
            -0.11205988845920302,
            0.8692434989321481,
            -0.5158800282193754,
            0.7488271488994135,
            -0.6973391732191284,
            -0.3040459754863164,
            -0.33507802190630764,
            -0.13796501727187627,
            -0.8323245015039743,
            0.14610005372199697,
            -0.6528617478465578,
            0.6956995181031107,
            0.5040984015485122,
            0.8501888411772067,
            -0.9966484879118356,
            0.7421789761449177,
            -0.25018545585389085,
            -1.0040082096202902,
            0.5991364276741332,
            0.6603175341453298,
            0.5691785997820686,
            -0.926276958016285,
            -0.39998194794374153,
            0.8414813763384159,
            -0.09852065654632015,
            0.1604517105667629,
            0.1494944680577857,
            0.14814111217780226,
            0.2638259851861474,
            0.38590642071661674,
            0.04456851750144626,
            -0.013881668113005396,
            0.05071808401869377,
            -0.9936350437573255,
            -0.07519294842177454,
            0.7256070679065113,
            -0.6750311270377901,
            -0.07365602073177835,
            0.5911551704176246,
            -0.5684190966675716,
            -0.12338242855611972,
            0.9750421543943697,
            -0.445942952212199,
            0.34532111411121963,
            0.6750622269677697,
            0.1957300044933339,
            -0.1507265083173417,
            0.08086190381076315,
            -0.003259349582965779,
            -0.8614983045863197,
            -0.05344948004493108,
            -0.6793264986065488,
            -0.9106761346989741,
            -0.6298315966110029,
            -0.5336538661420392,
            0.7814936941097921,
            0.05697638859726159
          ],
          [
            0.616981596488394,
            -0.4207278128052773,
            -0.7357590069399199,
            -0.04783867625970371,
            0.2274076959665577,
            0.5684025656989303,
            -0.21964310393255004,
            -0.8008819570295006,
            0.029036737176436997,
            0.36925829377127295,
            -0.4393496194779703,
            0.49440861493813076,
            -0.7025472105367163,
            -0.8241157541423979,
            -0.6235886009030318,
            -0.049627096737857666,
            0.6213835999919012,
            -0.4136705813104371,
            0.09660749123628781,
            -0.8512956052328201,
            -0.2606611765176342,
            -0.5156948795692755,
            0.30961100739541203,
            0.5733472770922746,
            -0.7503698109244243,
            -0.01178157689940801,
            -0.380497890082296,
            0.6101941807277286,
            0.9055613501683746,
            -0.1935820455064571,
            0.7950099399202362,
            -0.9620145268070178,
            -0.5479140435903403,
            0.7926179223758556,
            0.1354076496788465,
            0.8254409884973194,
            -0.7209767627326114,
            0.354600283952417,
            -0.5862129930876536,
            -0.5484141442073338,
            0.5386110826528315,
            -0.7308698694768876,
            -0.7821163377326078,
            -0.7223382148762683,
            0.14535453074857482,
            1.0123925193019139,
            0.21016844268348842,
            -0.4552227547472019,
            0.25660978924931643,
            0.09202739172340114,
            0.6920542776619085,
            0.7947322980136726,
            -0.7794702253065108,
            -0.8529029502185158,
            0.1553959355996274,
            -0.43939772003649313,
            -0.5848583413145463,
            0.825237246243408,
            -0.18513398686320565,
            0.4155232112384375,
            0.2677799485710487,
            0.051743620329470115,
            0.061449159499961166,
            0.638298998791232
          ],
          [
            -0.3295759208579331,
            0.10859374092975776,
            -0.6942108009229069,
            -0.5881341424362633,
            0.06051993031979312,
            0.772680755601998,
            0.8883339200516557,
            0.5185032176495367,
            -0.10965883097820392,
            0.8507581704854716,
            0.30930713321279873,
            -0.4818187537757917,
            0.5350575776753539,
            0.12550311148511614,
            -0.9686125197974469,
            0.7345271518647365,
            0.7834601285393548,
            0.012267095663888982,
            0.3631697448074551,
            -0.8004529266070377,
            0.2103517802871671,
            -0.9295977211343331,
            -0.15233686051037293,
            0.6923907179733133,
            0.8998337644158902,
            0.5331683261094714,
            -0.9866774033251084,
            0.02452200945292648,
            -0.9532364415651168,
            0.08210754468776081,
            0.9284043487169864,
            -0.8278418382088383,
            -0.7109798061424581,
            -0.6139020077960323,
            0.4348856294056101,
            -0.8056900454486646,
            -0.17590448928039407,
            0.021809484660429226,
            -0.6539383829348693,
            -0.32324509990879574,
            -0.6030052729173683,
            0.04013147572370121,
            0.45998662052363115,
            -0.22453675573997073,
            0.3022255357679165,
            0.43827012672307397,
            -0.463355290765923,
            -0.12582738725357717,
            0.010223024258171209,
            -0.8036642868142746,
            -0.2754360396025883,
            -0.03925660392341471,
            0.3790031165919151,
            0.32689346852311796,
            0.3751840921455526,
            -0.5302607928970899,
            0.8482401511238757,
            -0.11545513437615024,
            0.9122328183892531,
            -0.5217891037225884,
            0.13659376223091843,
            -0.9344768546059655,
            0.40761840184433606,
            -0.9843703755373263
          ],
          [
            0.21463627517613856,
            -0.6366192904078067,
            -0.188831289843557,
            -0.26648877041016317,
            0.7196565665706225,
            0.44384566960598737,
            -0.4023813134705111,
            0.5561268506186421,
            0.001978804333348248,
            -0.9513887762202448,
            -0.34100409855748703,
            0.6229393051164795,
            -0.9216651006149194,
            0.8477005487590762,
            -0.9131250992627404,
            0.7353785664410821,
            0.6567843210199714,
            -0.8216137693026719,
            0.03303600840986436,
            -0.6686140479240953,
            0.8887510607991527,
            -0.08309337783114713,
            -0.771235425180166,
            -0.5553591212533947,
            -0.29881637303570074,
            -0.7412959809198285,
            0.4104554481379793,
            -0.6770060354323573,
            -0.7916949633756387,
            0.09642333550490605,
            0.4750810377431618,
            0.38321109195073805,
            0.4076008670543756,
            -0.8903304440938851,
            0.7198661030982673,
            -0.19844330228275645,
            -0.4729430565553133,
            -0.951395743802058,
            -0.9886076600320153,
            -0.5242325547933993,
            0.22939743502935758,
            -0.2912708655228932,
            -0.0284474829897996,
            -0.26906176957001937,
            -0.6722560829387646,
            0.9508728731997244,
            0.6852614533160368,
            -0.5941426989701203,
            0.00581956651890969,
            -0.2606465995297992,
            -0.480604016091096,
            -0.5226696270178375,
            -0.9412153489105959,
            0.22336309670191823,
            -0.21243997375981483,
            -0.575446082612457,
            0.3296189374925953,
            -0.01290744182649095,
            0.5436882800392985,
            0.8063446184936464,
            0.2965742668531464,
            -0.629977610235587,
            -0.5265290892824094,
            -0.23713439578839654
          ],
          [
            -0.48972747568134667,
            -0.6541379447322029,
            -0.22702913451398749,
            -0.6048017540293157,
            0.7530459927708839,
            0.46965433126068634,
            -0.0848965665554302,
            0.8220887171098339,
            -0.09242509192584011,
            -0.6499762908540135,
            0.658973496390958,
            -0.874624567163244,
            0.8700546234799215,
            -0.48254159291057974,
            -0.36609952568666165,
            0.12886180392168067,
            0.3978592316327712,
            -0.9802721197404979,
            -0.708361277839107,
            0.7552894586714952,
            -0.665164272985093,
            0.7957274822244357,
            0.6072794394546784,
            0.22051681799490333,
            -0.23104188771827514,
            0.5219558596327674,
            -0.3747303983056276,
            -0.5291345648626523,
            0.2467393865495869,
            0.4737927346787944,
            -0.887279864905977,
            0.1034405854126508,
            0.7200851796302755,
            -0.26703177911233045,
            -0.7213030761777497,
            -0.36048097899113735,
            -0.3875334614292152,
            -0.24666375640504296,
            -1.0167091934986163,
            0.34884018431021374,
            0.6401187399954892,
            0.2285805551581472,
            -0.4031563856779318,
            -0.962811355116734,
            -0.3710383766698584,
            -0.3754045620980945,
            -0.08739543668700658,
            -0.4880958047419583,
            0.3968733598903364,
            -0.6002662687951043,
            -0.5033034218187259,
            0.7703847448303084,
            -0.09852415702205392,
            0.769770653321944,
            -0.4015828534572721,
            -0.5223860023428586,
            -0.6460170974896478,
            -0.9725012215255935,
            0.24664027060351484,
            -0.49247812723148393,
            0.7123784186097725,
            -0.7885201323220479,
            0.11305386374547692,
            -0.032979301790031335
          ],
          [
            -0.9566234592184083,
            0.5378563075898192,
            0.9612140970428734,
            -0.6361771885730034,
            0.45217045815298545,
            -0.21926734625814337,
            0.8544469388492237,
            0.25611853977710886,
            -0.2906290066554412,
            -0.6247630920737759,
            0.5945903062713547,
            -0.25511634380417997,
            0.6626714236970568,
            -0.5892814167079887,
            -0.1049498652012044,
            -0.4428550131584498,
            -0.7295032083530676,
            0.970682594998113,
            -0.5889991145419733,
            0.21035584319071415,
            0.9698708598800639,
            -0.45708894786658016,
            0.8616294792027085,
            0.788194670199372,
            -0.5263283253907367,
            -0.6097598447777512,
            -0.9247879403512875,
            -0.272374288386171,
            0.4977035635819578,
            0.5805748119375496,
            -0.7325163943307169,
            -0.0172668174758992,
            -0.6732730497615467,
            0.44483525651029626,
            0.13456383518394674,
            0.09603352005488763,
            -0.6917616904655266,
            0.640628213292645,
            -0.15417746953181588,
            -0.49102883304023637,
            -0.5675921505053653,
            0.7403721160130878,
            0.503327235793541,
            -0.2290013847002786,
            0.5360330331651928,
            0.6674614803036567,
            0.4097308302580491,
            0.7235507176117961,
            0.3841250431238631,
            -0.8037943734751082,
            0.5918707643298462,
            0.538878088936339,
            0.13765631520360183,
            0.7836037011942079,
            0.654988391326735,
            -0.2801800430588933,
            0.22011647314208554,
            -0.9650439125854557,
            -0.8451974182268576,
            0.7260119755954793,
            0.4171898681357294,
            0.3090748190446861,
            -0.9569048820167139,
            -0.8496929379275016
          ],
          [
            -0.41479868538788095,
            0.850522317834808,
            0.40330135942718714,
            0.024110023355286524,
            0.6498080670586083,
            -0.09799388111531454,
            0.8077034374129459,
            -0.5265595153014705,
            0.14632978357805693,
            -0.32712223343149377,
            -1.001070722698372,
            0.30725318102947735,
            0.9386558816080782,
            0.2978412662547066,
            0.9993907433097827,
            -0.7814586794330606,
            0.10373273842720608,
            0.12327957607437393,
            -0.30005118323358426,
            -0.23236049762742442,
            -0.5217645998602489,
            0.4289546534892136,
            0.7024839047685745,
            0.8962101930233736,
            -0.9431958132716128,
            -0.7037007782118145,
            -0.6257538249248964,
            0.7385171096407938,
            0.5339966772772651,
            0.2962330315408536,
            -0.3865536781497686,
            -0.30644798429155584,
            -0.3703630281424668,
            -0.35546394705817186,
            -0.2850309017456501,
            -0.5242448300427235,
            -0.5796728509155683,
            -0.9114182312150042,
            0.8056625340683397,
            0.781821431373349,
            -0.3551048730515035,
            0.3387707717567116,
            -0.105736388412916,
            -0.15508858843481937,
            0.2717117408663324,
            0.40325269760620297,
            0.47827714105715263,
            0.20039338559385655,
            -0.8519445252583783,
            0.17783619046821184,
            -0.045994595431135765,
            0.6102951400436073,
            0.5879093819993588,
            -0.018436147411023063,
            0.44999643403716716,
            -0.9499509995853417,
            0.9538559403399438,
            -0.45951544862210303,
            0.349159780933706,
            0.8382382169136575,
            -0.11839945667801086,
            -0.8762446587843339,
            -0.16564116691428757,
            0.3170494473423119
          ],
          [
            0.16636784743416952,
            -0.6519180092616776,
            0.3285997848111108,
            0.35961084973088947,
            -0.35515466705762183,
            0.11023423799072603,
            -0.11770109193862016,
            0.6607838362587142,
            -0.06473990765549618,
            0.9755129423946134,
            -0.4711102033459875,
            0.7525017669554555,
            0.23243697235742078,
            -0.7571437936359968,
            0.9413033373834813,
            0.1450086726965123,
            0.8639071878021469,
            0.8451435538645681,
            0.6728813622917932,
            0.7967253307945223,
            -0.41696080061043045,
            -0.4036741474779973,
            0.8111652581750755,
            -0.5985695739450095,
            0.6501809679351234,
            0.6366021162444843,
            0.8904601867086863,
            0.07751605127293147,
            -0.23515283798255956,
            0.20091804640717878,
            -0.9587548780559628,
            0.030037671733175723,
            -0.32760871752296794,
            -0.8838652605619158,
            0.32117323557888444,
            -0.7344466987710009,
            0.21730663767696196,
            0.004123832116863906,
            -0.25451716812323455,
            0.7615585769810503,
            -0.20933668020121235,
            0.9657859286849413,
            -0.35935892542347736,
            0.9019912850315727,
            -0.5651496306572487,
            -0.7997983666308283,
            0.8063731473735979,
            0.5377803178010644,
            0.5788348475941824,
            -0.39620426511678153,
            0.8980834223597592,
            -0.27396158864029896,
            0.41998332144837774,
            -0.9698744118759117,
            0.6679787303035742,
            0.1589675806277109,
            0.7642034103310007,
            -0.005927227923393175,
            0.2762990452866006,
            0.991485969812702,
            0.8030487463328521,
            0.3938911251988047,
            -0.6730548136431186,
            0.40232995466079063
          ],
          [
            -0.04185817667800633,
            -0.4314146115834074,
            0.07864992995849109,
            -0.16012326371031954,
            -0.8308413198173457,
            0.7260188355776627,
            -0.41368189854777143,
            -0.9754583422014873,
            -0.37742549769253664,
            0.4246910837105933,
            -0.5234308422391621,
            -0.5942132269132585,
            -0.2992645796839196,
            -0.44142076386269574,
            0.5552235529122342,
            0.2840554523530032,
            0.9008510737344838,
            0.6590884370851913,
            0.6606718592890959,
            0.7013951996001145,
            -0.22405993542745933,
            0.527110899491979,
            -0.230697060912156,
            0.15260071060588876,
            -0.5813261260194742,
            0.06092471770855477,
            -0.35483691416001295,
            0.660722256994593,
            -0.8148543224392346,
            0.24721744864002607,
            0.645123662249796,
            -0.04903885579787562,
            -0.927699464857869,
            -0.6928081163404877,
            -0.3883249450889849,
            0.6037193289510713,
            -0.0061730517903769615,
            -0.9281081031768578,
            -0.31571957782802845,
            -0.15763239990636785,
            -0.2104975260978406,
            -0.3564479971305268,
            0.151320232137504,
            0.03394439761197995,
            0.19921103822606323,
            0.2731890246864605,
            -0.47811940148023213,
            -0.9079777544848634,
            -0.24303651998582604,
            0.9730170789705818,
            0.16732408702026905,
            -0.2709974237590837,
            0.7565794888831562,
            0.5144056332143968,
            -0.8676401553001282,
            0.2904487569215511,
            0.3628992816640059,
            0.08146314108117975,
            -0.6210898726307205,
            -0.7188328624737369,
            -0.7377517164346746,
            0.13874518163086502,
            -0.016856035806677053,
            0.28002602392356346
          ],
          [
            0.8143511882649379,
            0.5074432707037451,
            -0.9434056035303714,
            0.4513081683700469,
            -0.9421622297500253,
            -0.07229812134878982,
            0.2954521364937745,
            0.3642300887292893,
            -0.5068493197002435,
            -0.15461509676882831,
            0.4060653457021826,
            0.5847964886930367,
            0.7673521324377203,
            0.3979888177642994,
            -0.3217972064930096,
            0.4164427748075386,
            0.42424277952565037,
            0.7025425923665507,
            0.9130176552248076,
            -0.20091058172770349,
            0.4211800152706041,
            0.9669258546874602,
            0.7011544763092401,
            -0.38407419228529177,
            0.8526596777297534,
            -0.5691254890687821,
            -0.9293692850130874,
            0.5279955028794682,
            -0.7341532827776501,
            -0.09831500016516331,
            0.4112637999523188,
            0.33727894473764714,
            0.20077353322646116,
            0.37211166436714865,
            0.38898041594481225,
            -0.8773279559532876,
            -0.12476487015723103,
            0.23666672617714385,
            0.39768223462197094,
            0.7190960906676761,
            -0.7455033459505396,
            -0.781610612663477,
            -0.32652976522090177,
            -0.20116563887346736,
            0.39702086094749195,
            -0.6330872968101569,
            0.7278399280452835,
            0.4438987825975054,
            0.30373590577501536,
            -0.9921194533709276,
            -0.06383104715502887,
            -0.04299773621914041,
            0.11911394499058965,
            -0.9466381748086895,
            -0.5969270541168767,
            -0.16056685871841112,
            -0.8900873588397648,
            -0.8821328322912293,
            0.32008177587877656,
            0.585310977560827,
            0.3547411901003,
            0.3521010911164461,
            -0.3797547086927745,
            -0.45887469922814006
          ],
          [
            -0.09961867547195953,
            -0.4776933265940713,
            0.4484636005937569,
            -0.025985924855360557,
            -0.42644173129190505,
            -0.8708241522341194,
            -0.18645085884759086,
            0.6462822405263481,
            0.6131238893218953,
            -0.026371638911801953,
            -0.6618102760675372,
            0.10115924645282989,
            0.26944406010989286,
            0.8576314033877547,
            -0.8195686096951769,
            -0.9786227641438706,
            -0.29468541167442086,
            0.9058579322398688,
            0.5122258059879374,
            -0.41681060475330656,
            0.8690477899544129,
            -0.2886162403756792,
            0.8763821564197849,
            0.9426654719759973,
            0.4067215528544558,
            0.47446598554268843,
            -0.2801570926222665,
            -0.614232832390404,
            0.7736020195602634,
            0.7374399180406109,
            -0.6243667008411998,
            0.5789573210402387,
            -0.22464534776251519,
            0.4065949312496482,
            -0.8720403786697519,
            0.9090616423799777,
            -0.6606779975153816,
            0.29326797160686496,
            0.6188990949705191,
            -0.274672663066777,
            0.2683171279972231,
            -0.3562199320479522,
            0.7917211332930363,
            -0.3118119664296418,
            0.9208741269452254,
            0.911904516780926,
            -0.7727330758992375,
            -0.725611377144308,
            0.2863107611192975,
            0.7184747836256863,
            -0.23181793821221638,
            0.440052878314503,
            -0.01595459553823909,
            0.742027297513546,
            0.6979691780300312,
            -0.9307978737553307,
            -0.20045589571115116,
            0.29923545586848055,
            -0.04090697662970816,
            -0.20144413294981245,
            0.6384031554514998,
            0.08575047997400823,
            0.488314087564705,
            0.9179454384757637
          ],
          [
            -0.003359110976692816,
            0.2976047223969316,
            0.003925087038827802,
            0.26092948948635347,
            -0.03909524959652911,
            1.0093326816889003,
            0.4031922926048397,
            -0.014194025343706958,
            -0.6924357688527673,
            -0.7978860843819167,
            -0.18439567742968974,
            -0.48272610099793534,
            0.797821259564361,
            -0.8711303891994865,
            -0.34145196380614845,
            -0.9046791742576605,
            -0.5913883686090967,
            -0.1657101854580755,
            -0.8650030368354188,
            0.5166352817799297,
            0.5298393660346143,
            0.7693048558037477,
            0.6477441249451896,
            0.2923882993911704,
            0.45147140181479856,
            0.7584592777884298,
            0.3404326241242904,
            0.8151375581102025,
            -0.20243255670892826,
            -0.6978273924676149,
            0.9042874513434693,
            -0.42428717205319505,
            -0.7582054999577067,
            -0.7962345933838988,
            -0.7079795344858204,
            -0.2872819466960222,
            0.5633895880333665,
            -0.5037406645878704,
            -0.8954522689041607,
            -0.3271911205197453,
            -0.741908716520434,
            -0.03207958331980648,
            -0.8425647779977088,
            0.4319708051789703,
            -0.8038306476628434,
            -0.22625377714294775,
            -0.0692193803270158,
            0.8658036791708681,
            -0.9493160641827942,
            -0.9929520305896951,
            -0.7146737633932799,
            -0.4702641815952723,
            -0.651707707437044,
            -0.9043994618730077,
            -0.28548551649863463,
            -0.34261921212090407,
            0.32570459237743354,
            -0.16514715109079126,
            0.009675938482173718,
            -0.3223032549595697,
            -0.023853702037753013,
            -0.6305602154433266,
            -0.6143074139572023,
            -0.9166431194091847
          ],
          [
            0.9244202358468284,
            0.03027899518369865,
            -0.19234467687512535,
            -0.2516102414592463,
            0.7587914482259924,
            0.7939905463187311,
            -0.32238870919338214,
            -0.9166168574368642,
            -0.8118615731016363,
            0.25486311907583387,
            0.7661504588335792,
            -0.4033770335762866,
            0.38916299921617886,
            -0.6234609247887365,
            -0.7380875259586087,
            0.35043100125027826,
            0.5928447801933331,
            0.6585527230262068,
            0.5230735944687095,
            -0.5773569049536166,
            -0.8196888380625953,
            0.5106616415165123,
            -0.818705609112366,
            -0.57154680062868,
            -0.12582195501950505,
            -0.460074978017646,
            0.8553121025481507,
            0.6210926166426801,
            -0.5325264487002879,
            -0.878088544591085,
            -0.4037655662647289,
            -0.2850487318747227,
            0.6356714669654613,
            -0.2524862050909901,
            -0.5900217500961794,
            0.36296068510199575,
            0.15441218960699427,
            0.36965627043882276,
            0.0976025530304218,
            0.7649597001518057,
            0.1911806510092912,
            0.08685935270704477,
            -0.3084553655940364,
            -0.2727630206336294,
            0.519339258744651,
            -0.7503660189431842,
            -0.05258685722819745,
            0.338079741968231,
            0.14370336525548238,
            0.0907106690170442,
            -0.3861508025102487,
            -0.49606495111592686,
            -0.4637846041184921,
            0.23742799532916573,
            -0.5079980207459409,
            0.38034110604912996,
            0.1355436026553123,
            -0.759895417699518,
            -0.016742537543781008,
            0.35962526032498426,
            -0.8948084747739394,
            -0.31528767268826524,
            -0.33453351235472756,
            0.9284721509837978
          ],
          [
            -0.8025818323467943,
            -0.5044849925249646,
            -0.18865699196341584,
            0.7011560926910664,
            -0.19020368307544552,
            0.797909050564239,
            0.9782846176444345,
            0.3935179099639975,
            -0.9846517856136543,
            -0.6621812644758979,
            0.8173655971353491,
            -0.24425082032434609,
            -0.7713190076960426,
            0.9828811773052576,
            0.5715035543354015,
            0.9560170518680742,
            -0.9910783542388147,
            -0.6780769778014742,
            0.9729647158346633,
            -0.9062520245881358,
            -0.2877821334091029,
            -0.1798948436913251,
            0.3406243013637,
            -0.3680347546076486,
            -0.6768712017827837,
            -0.9653289848844927,
            -0.3792799011225897,
            -0.31128199565720277,
            0.9141450394076418,
            -0.7399790784790249,
            -0.8193314975361136,
            0.16155297477587763,
            0.7733719704404403,
            -0.7756988391297307,
            -0.8769204965135008,
            0.6216309735546666,
            -0.747422043742967,
            -0.6432162857337194,
            0.8005466180812686,
            -0.35961137875059607,
            -0.05070051053516196,
            0.5583571177312946,
            -0.45426569306774506,
            0.9410956406314175,
            -0.9289911278854798,
            -0.11552046246577459,
            -0.9894396415726096,
            -0.16548425230248703,
            0.39298074369343194,
            0.480053072983112,
            0.12694857294317113,
            0.7440278084638001,
            0.9422647971374254,
            -0.5107442913203926,
            -0.5467719397283588,
            -0.8068505349927062,
            0.28170134934295016,
            -0.09841264659561488,
            -0.30568584070761134,
            0.926604399255123,
            -0.7558968266553352,
            0.4896045097962567,
            0.49571625556612314,
            0.4351701469725524
          ],
          [
            -0.8302270420008284,
            0.6077252086729048,
            -0.3127225553244409,
            0.571095361517586,
            0.7216845720790686,
            0.13622417660626537,
            0.41385851307652444,
            -0.909954953548732,
            -0.9194794856808179,
            -0.2722221616708702,
            -0.8336789544064738,
            0.962873616835233,
            -0.8206456462454936,
            -0.6952838418255783,
            0.8654865862461838,
            -0.9929471966895725,
            -0.04098203936426624,
            0.4016227268369592,
            -0.7017005951863132,
            -0.6449784790787222,
            -0.22108260147334852,
            0.14307014538352114,
            -0.3897691630414237,
            0.1576817845916571,
            0.66372934691685,
            -0.15026242152056435,
            0.46599397539283205,
            -0.9258836574804884,
            0.2882037277505181,
            -0.5925971436685508,
            -0.13426319170154818,
            -0.8223080285983622,
            0.5616641947747086,
            -0.29923687485690165,
            -0.7009633854646793,
            -0.041016269761922984,
            0.37273278132230897,
            0.7425851226747322,
            0.9775080480520526,
            -0.4197899208550132,
            -0.6765293727745125,
            0.010661147400755763,
            -0.7671597415107575,
            -0.6048701387139848,
            -0.17560570339289064,
            -0.32928361928158906,
            -0.7419430531645841,
            -0.32164714606161887,
            0.5517607706528136,
            0.19320188568619143,
            -0.41751935285903075,
            -0.9078108158514887,
            -0.5399922269664772,
            -0.7938793199087621,
            0.04866200224508292,
            -0.9124080187925985,
            0.13443021355415152,
            0.3852993640540628,
            0.35100603466099956,
            0.28942469687499406,
            -0.7430127879346186,
            -0.810273823977043,
            -0.08351475229075841,
            -0.44083920881706834
          ],
          [
            0.7259691117966214,
            -0.5598963679324874,
            -0.17410671141679007,
            0.08005775816300216,
            0.07809766164519674,
            0.8387677329277948,
            -0.7652428083603217,
            -0.8558449695991049,
            0.8193687913554322,
            -0.6867429614415304,
            -0.9439706805648573,
            -0.487978978145065,
            -0.5554179330964495,
            0.07715923547182452,
            -0.20103851719585147,
            -0.16138688227097306,
            -0.8981791932922862,
            -0.46232280839647527,
            -0.18953873382425654,
            -0.8808659943310209,
            0.05662413808532998,
            -0.43275201466349067,
            -0.3030265201495794,
            -0.3733412490189414,
            0.0018523029795750603,
            -0.5234304196171115,
            0.8939047189533043,
            -0.7669109049881762,
            0.813785599207806,
            0.8625900582747426,
            -0.6910488039235849,
            0.18130582474419385,
            0.9394892107815448,
            0.8328921977593723,
            0.9043348383302322,
            0.7732557026905416,
            -0.5993143800163777,
            0.3511249916474258,
            -0.738875404079652,
            -0.1697200686415632,
            0.9546036272469242,
            0.49780266525787165,
            0.05837684526500741,
            0.297820258754854,
            0.1320341360382683,
            -0.21225722133888117,
            -0.5044431262403232,
            0.0497278899190386,
            0.7298105949657032,
            -0.051575470670728964,
            -0.0380950721143658,
            -0.20105032611388518,
            -0.8121324299223722,
            0.29343415557256236,
            -0.5823485801598325,
            -0.816300084637551,
            0.012139793837451007,
            -0.3314889547461407,
            -0.2745442373927687,
            0.7031339899428349,
            -0.2758752729653141,
            -0.16360719507245794,
            0.5161482690949265,
            0.5579572410240372
          ],
          [
            -0.49881552179576893,
            -0.2205173574727072,
            -0.4756323314123082,
            -0.2765086171208154,
            -0.3651628727132753,
            -0.8026186165154163,
            0.8807547872261389,
            0.3795303730698067,
            -0.9818814457480349,
            -0.7850386033139994,
            0.7031987067092759,
            -0.6717557924834675,
            -0.9326503401531672,
            -0.5033085284976901,
            0.5518464861808594,
            -0.46471125185442747,
            0.27604194130677817,
            -0.11612362353695012,
            -0.36881348476251197,
            -0.6095567256824664,
            0.7555989684481235,
            0.15972207779038966,
            0.8484024196125419,
            -0.3675413797849207,
            -0.39236929179200475,
            0.5498364327861839,
            0.06500109188491422,
            -0.32554491217918746,
            -0.3154055980630313,
            -0.7645963109521086,
            0.7324510612362173,
            0.3649367441762682,
            0.7120025307216703,
            -0.05435449924850118,
            0.058377908126391986,
            -0.8620398376912054,
            0.5187197055346178,
            0.09748470592548986,
            0.1842442657040572,
            0.12683674082604018,
            -0.6007131399305323,
            0.4459769732863072,
            -0.7155737292396207,
            0.12300495764521607,
            0.893080139652015,
            -0.5994527323142085,
            0.236742430879627,
            -0.4993218265314626,
            -0.40877710617006624,
            0.29395660452771255,
            -0.4692556607006755,
            0.006003049948287777,
            -1.0031657977654005,
            -0.017825836814328033,
            0.7659474157722471,
            -0.22466972293785548,
            0.44664300007761754,
            0.12421975710247284,
            -0.7954093411047289,
            0.4403638497685438,
            0.9426595768105646,
            0.5564115928517869,
            0.33113824699254185,
            0.612879837975212
          ],
          [
            0.43138303122657023,
            -0.5018701194320634,
            0.39136255112883817,
            0.8585899524136953,
            0.5162305415364529,
            0.32453734322446565,
            0.029194051787184705,
            0.2901456056758956,
            0.3742623950370345,
            0.7893857440034617,
            -0.8517683633985063,
            0.4630184864433871,
            0.5298271454324676,
            0.9539221470483011,
            -0.8094371301010124,
            -0.7355890313139131,
            -0.44490983534205336,
            -0.9000430135641173,
            0.21604784969631133,
            -0.7640109827558548,
            0.743989717697777,
            -0.5344632195166585,
            -0.04319469742604237,
            0.7500659383502802,
            -0.6320385197513877,
            0.26988557183073625,
            -0.6919323885738075,
            0.6334252431368466,
            -0.884110324722333,
            -0.4196252166744477,
            0.4095497446371268,
            -0.4997286739565271,
            -0.4657934687926809,
            0.10282507609674792,
            0.18063155053003185,
            -0.9013536812196274,
            0.8001760839937239,
            0.3108147511134349,
            -0.17123383795112926,
            1.0037823472456024,
            -0.9676209772887936,
            -0.1695950698530402,
            -0.5658735756184544,
            0.3425041736517281,
            0.26498383466835346,
            0.458437253876982,
            0.5238628931158805,
            -0.8952859918708214,
            -0.1651673738189549,
            0.4234489253647448,
            0.9286262949943471,
            -0.10834167286324625,
            0.18871987340703988,
            0.03787451171809164,
            0.527492972026798,
            -0.7796086550958524,
            0.7140472655047271,
            0.6292045212851108,
            0.21004991575108511,
            -0.25154672334345607,
            0.17133953553191117,
            0.7010676445008146,
            0.872039121478191,
            -0.9289564600855826
          ],
          [
            0.1242464619948428,
            -0.9708394880364203,
            0.09472400145414661,
            -0.8665848778145948,
            0.8027880960722584,
            -0.34936733412835697,
            0.3458372315961052,
            0.28298791983782373,
            -0.14271837787573632,
            -0.5561628413933665,
            0.9208317773713127,
            0.9191878229681302,
            0.17201584606864043,
            -0.19442959907623192,
            0.5582007362918703,
            -0.757523387788979,
            0.41906778461487837,
            0.32747391276391685,
            -0.6577579339547859,
            -0.56573917069227,
            0.11456939557233543,
            0.8245439561594337,
            -0.5798443943931751,
            -0.2253885329471913,
            0.13050460075497347,
            -0.5245584478647703,
            -0.018402303738666404,
            -0.5632391872320284,
            0.09742644656919547,
            0.1818731957677518,
            0.6163463744152885,
            0.6237552226396835,
            0.5273670339598153,
            0.029980268437659222,
            -0.11814077757708706,
            -0.6570133191422055,
            0.26860227401442255,
            -0.901161659699993,
            -0.5024400723563688,
            0.09339027467599079,
            -0.9993016819191047,
            0.09663861489489829,
            -0.5709812945478805,
            0.23015717710224337,
            0.49433000530800936,
            0.9848549074942728,
            0.8044547776951101,
            -0.6836369877111763,
            0.8830989620638916,
            0.43656070011238873,
            0.4872515895690281,
            0.7139730858223365,
            -0.02558536772334607,
            0.09234120209231489,
            -0.6512042265168435,
            0.8503717001706991,
            0.05175794949327406,
            -0.5953753762972438,
            -0.4299967326124804,
            -0.48494044452694973,
            0.27848743805030873,
            -0.794500890837828,
            -0.964605871868918,
            0.4400632926014558
          ],
          [
            -0.9670538701263479,
            -0.029745976888059165,
            0.3320324370547517,
            0.4802771448280356,
            0.32279765486642326,
            0.8919260801710698,
            0.9393699713796331,
            0.33980847059906916,
            -0.6670057150187648,
            0.8155540516914956,
            -0.8256343322465555,
            -0.23784852874427148,
            0.6200188523739519,
            -0.9790914289232759,
            0.6273428298935781,
            -0.7928230901454514,
            -0.41376029662919883,
            -0.3383605308713045,
            0.3923096337636849,
            0.9455389307202046,
            0.17002192305158204,
            0.49221222804404635,
            -0.32460606175060924,
            -0.64856707370837,
            -0.7760439790352492,
            0.11614553236081673,
            0.874376820864682,
            0.4357932533132832,
            0.8454959262185205,
            0.07545515024160568,
            0.6585914416681354,
            0.6700019238716329,
            0.36355336044874526,
            0.5838811605249581,
            0.5596225996482522,
            0.37002952914625825,
            -0.7764943042917152,
            0.8908250901776729,
            -0.7558981512933076,
            -0.6486821832776495,
            0.5814914216268863,
            0.3862415227296257,
            0.5676579498266652,
            0.16862842620046245,
            -0.8874464247307581,
            0.9706955359354443,
            0.8562176296776545,
            0.0366886231796695,
            0.11780385988032621,
            0.44929948159556155,
            -0.586762880867903,
            0.7865265350975575,
            -0.494580113516622,
            -0.6919342961984514,
            0.30382777145520407,
            0.6985042587032937,
            -0.6804601401350276,
            -0.292561911679489,
            0.8776107920318372,
            -0.16222746249601033,
            0.020511025334101797,
            0.4996378960875908,
